-0.017984 -0.063167 -0.000813
0.025427 -0.042710 -0.000856
0.002888 -0.110221 -0.001714
0.050006 -0.083082 -0.001699
0.022524 -0.155545 -0.002607
0.073759 -0.121263 -0.002530
0.041019 -0.199187 -0.003492
0.096691 -0.157426 -0.003349
0.058490 -0.241170 -0.004368
0.118785 -0.191769 -0.004158
0.075071 -0.281486 -0.005236
0.140009 -0.224509 -0.004959
0.090909 -0.320105 -0.006094
0.160318 -0.255867 -0.005753
0.106154 -0.356988 -0.006943
0.179667 -0.286056 -0.006542
0.120941 -0.392095 -0.007780
0.198018 -0.315263 -0.007327
0.135387 -0.425400 -0.008606
0.215352 -0.343636 -0.008110
0.149574 -0.456906 -0.009420
0.231669 -0.371276 -0.008890
0.163551 -0.486642 -0.010222
0.246991 -0.398242 -0.009669
0.177337 -0.514666 -0.011013
0.261357 -0.424558 -0.010446
0.190928 -0.541053 -0.011793
0.274818 -0.450222 -0.011222
0.204306 -0.565892 -0.012564
0.287431 -0.475218 -0.011995
0.217445 -0.589276 -0.013324
0.299252 -0.499525 -0.012766
0.230318 -0.611297 -0.014077
0.310338 -0.523123 -0.013535
0.242900 -0.632045 -0.014821
0.320743 -0.545995 -0.014300
0.255170 -0.651601 -0.015557
0.330515 -0.568130 -0.015063
0.267110 -0.670043 -0.016288
0.339700 -0.589522 -0.015822
0.278710 -0.687444 -0.017011
0.348341 -0.610171 -0.016577
0.289962 -0.703869 -0.017729
0.356476 -0.630081 -0.017329
0.300860 -0.719381 -0.018442
0.364141 -0.649260 -0.018077
0.311403 -0.734041 -0.019150
0.371372 -0.667719 -0.018822
0.321592 -0.747903 -0.019853
0.378200 -0.685471 -0.019562
0.331428 -0.761021 -0.020552
0.384657 -0.702531 -0.020299
0.340915 -0.773447 -0.021248
0.390772 -0.718915 -0.021032
0.350057 -0.785229 -0.021939
0.396573 -0.734639 -0.021762
0.358859 -0.796415 -0.022628
0.402087 -0.749719 -0.022488
0.367325 -0.807049 -0.023313
0.407339 -0.764175 -0.023210
0.375463 -0.817174 -0.023996
0.412355 -0.778021 -0.023928
0.383278 -0.826830 -0.024677
0.417155 -0.791276 -0.024643
0.390776 -0.836054 -0.025355
0.421762 -0.803957 -0.025354
0.397965 -0.844882 -0.026032
0.426195 -0.816082 -0.026062
0.404852 -0.853346 -0.026706
0.430471 -0.827668 -0.026766
0.411444 -0.861475 -0.027379
0.434606 -0.838733 -0.027467
0.417750 -0.869295 -0.028051
0.438613 -0.849294 -0.028165
0.423779 -0.876831 -0.028721
0.442506 -0.859370 -0.028860
0.429539 -0.884102 -0.029390
0.446293 -0.868979 -0.029551
0.435041 -0.891126 -0.030058
0.449982 -0.878140 -0.030240
0.440295 -0.897920 -0.030725
0.453582 -0.886872 -0.030925
0.445310 -0.904494 -0.031392
0.457097 -0.895192 -0.031608
0.450097 -0.910861 -0.032057
0.460531 -0.903120 -0.032288
0.454667 -0.917029 -0.032721
0.463887 -0.910674 -0.032966
0.459032 -0.923006 -0.033384
0.467168 -0.917872 -0.033641
0.463200 -0.928797 -0.034047
0.470374 -0.924732 -0.034314
0.467183 -0.934407 -0.034708
0.473507 -0.931272 -0.034984
0.470992 -0.939842 -0.035369
0.476567 -0.937507 -0.035653
0.474635 -0.945104 -0.036029
0.479555 -0.943454 -0.036319
0.478122 -0.950196 -0.036688
0.482470 -0.949128 -0.036984
0.481462 -0.955123 -0.037346
0.485313 -0.954543 -0.037647
0.484665 -0.959886 -0.038003
0.488083 -0.959714 -0.038308
0.487737 -0.964488 -0.038659
0.490782 -0.964653 -0.038967
0.490686 -0.968933 -0.039314
0.493409 -0.969372 -0.039625
0.493520 -0.973223 -0.039969
0.495965 -0.973883 -0.040282
0.496245 -0.977361 -0.040622
0.498450 -0.978196 -0.040937
0.498867 -0.981350 -0.041275
0.500866 -0.982322 -0.041591
0.501391 -0.985194 -0.041926
0.503213 -0.986269 -0.042244
0.503824 -0.988896 -0.042577
0.505493 -0.990046 -0.042896
0.506169 -0.992459 -0.043227
0.507706 -0.993661 -0.043546
0.508431 -0.995888 -0.043875
0.509854 -0.997122 -0.044196
0.510614 -0.999184 -0.044523
0.511938 -1.000435 -0.044844
0.512722 -1.002352 -0.045171
0.513960 -1.003608 -0.045491
0.514759 -1.005397 -0.045817
0.515922 -1.006646 -0.046138
0.516727 -1.008320 -0.046462
0.517824 -1.009555 -0.046783
0.518631 -1.011126 -0.047107
0.519669 -1.012340 -0.047428
0.520472 -1.013819 -0.047751
0.521458 -1.015006 -0.048071
0.522253 -1.016402 -0.048394
0.523192 -1.017559 -0.048714
0.523977 -1.018878 -0.049036
0.524875 -1.020003 -0.049356
0.525646 -1.021252 -0.049678
0.526506 -1.022341 -0.049998
0.527263 -1.023526 -0.050318
0.528088 -1.024579 -0.050638
0.528829 -1.025703 -0.050959
0.529622 -1.026719 -0.051278
0.530346 -1.027787 -0.051598
0.531110 -1.028766 -0.051917
0.531817 -1.029782 -0.052237
0.532553 -1.030723 -0.052555
0.533243 -1.031689 -0.052874
0.533953 -1.032593 -0.053193
0.534625 -1.033513 -0.053512
0.535311 -1.034380 -0.053830
0.535965 -1.035255 -0.054148
0.536629 -1.036086 -0.054466
0.537266 -1.036920 -0.054784
0.537908 -1.037714 -0.055102
0.538527 -1.038508 -0.055420
0.539149 -1.039268 -0.055737
0.539752 -1.040024 -0.056055
0.540354 -1.040749 -0.056372
0.540940 -1.041469 -0.056689
0.541524 -1.042161 -0.057006
0.542093 -1.042846 -0.057323
0.542660 -1.043506 -0.057639
0.543213 -1.044157 -0.057956
0.543763 -1.044786 -0.058272
0.544300 -1.045405 -0.058588
0.544834 -1.046004 -0.058904
0.545357 -1.046592 -0.059220
0.545875 -1.047161 -0.059536
0.546383 -1.047719 -0.059852
0.546886 -1.048260 -0.060167
0.547380 -1.048789 -0.060483
0.547869 -1.049303 -0.060798
0.548349 -1.049805 -0.061113
0.548824 -1.050292 -0.061428
0.549291 -1.050767 -0.061743
0.549753 -1.051228 -0.062058
0.550207 -1.051677 -0.062372
0.550656 -1.052114 -0.062687
0.551098 -1.052539 -0.063001
0.551534 -1.052951 -0.063316
0.551964 -1.053352 -0.063630
0.552388 -1.053741 -0.063944
0.552806 -1.054119 -0.064258
0.553219 -1.054485 -0.064572
0.553626 -1.054841 -0.064885
0.554028 -1.055185 -0.065199
0.554424 -1.055520 -0.065512
0.554815 -1.055844 -0.065826
0.555201 -1.056157 -0.066139
0.555582 -1.056461 -0.066452
0.555957 -1.056754 -0.066765
0.556328 -1.057038 -0.067078
0.556694 -1.057313 -0.067391
0.557055 -1.057578 -0.067704
0.557411 -1.057833 -0.068017
0.557763 -1.058080 -0.068329
0.558110 -1.058318 -0.068642
0.558452 -1.058547 -0.068954
0.558791 -1.058767 -0.069266
0.559125 -1.058979 -0.069578
0.559454 -1.059183 -0.069890
0.559780 -1.059378 -0.070202
0.560102 -1.059566 -0.070514
0.560419 -1.059745 -0.070826
0.560733 -1.059917 -0.071138
0.561042 -1.060081 -0.071449
0.561348 -1.060238 -0.071761
0.561650 -1.060388 -0.072072
0.561948 -1.060530 -0.072383
0.562243 -1.060665 -0.072695
0.562534 -1.060793 -0.073006
0.562822 -1.060914 -0.073317
0.563106 -1.061028 -0.073628
0.563387 -1.061136 -0.073939
0.563665 -1.061237 -0.074249
0.563939 -1.061332 -0.074560
0.564210 -1.061420 -0.074871
0.564478 -1.061503 -0.075181
0.564742 -1.061579 -0.075491
0.565004 -1.061649 -0.075802
0.565263 -1.061714 -0.076112
0.565518 -1.061772 -0.076422
0.565771 -1.061825 -0.076732
0.566021 -1.061872 -0.077042
0.566268 -1.061914 -0.077352
0.566513 -1.061951 -0.077662
0.566754 -1.061982 -0.077972
0.566993 -1.062008 -0.078281
0.567230 -1.062028 -0.078591
0.567463 -1.062044 -0.078900
0.567695 -1.062055 -0.079210
0.567923 -1.062061 -0.079519
0.568150 -1.062062 -0.079828
0.568374 -1.062058 -0.080137
0.568595 -1.062050 -0.080447
0.568814 -1.062037 -0.080756
0.569031 -1.062020 -0.081064
0.569246 -1.061998 -0.081373
0.569458 -1.061972 -0.081682
0.569669 -1.061942 -0.081991
0.569877 -1.061908 -0.082299
0.570083 -1.061869 -0.082608
0.570287 -1.061827 -0.082917
0.570489 -1.061781 -0.083225
0.570689 -1.061730 -0.083533
0.570887 -1.061676 -0.083841
0.571083 -1.061618 -0.084150
0.571277 -1.061556 -0.084458
0.571469 -1.061491 -0.084766
0.571659 -1.061422 -0.085074
0.571848 -1.061350 -0.085382
0.572035 -1.061274 -0.085689
0.572220 -1.061195 -0.085997
0.572403 -1.061112 -0.086305
0.572585 -1.061027 -0.086613
0.572765 -1.060938 -0.086920
0.572943 -1.060845 -0.087227
0.573120 -1.060750 -0.087535
0.573295 -1.060652 -0.087842
0.573469 -1.060550 -0.088149
0.573641 -1.060446 -0.088457
0.573812 -1.060339 -0.088764
0.573981 -1.060228 -0.089071
0.574149 -1.060115 -0.089378
0.574315 -1.060000 -0.089685
0.574480 -1.059881 -0.089992
0.574643 -1.059760 -0.090298
0.574805 -1.059636 -0.090605
0.574966 -1.059510 -0.090912
0.575126 -1.059381 -0.091218
0.575284 -1.059250 -0.091525
0.575441 -1.059116 -0.091831
0.575596 -1.058980 -0.092137
0.575751 -1.058841 -0.092444
0.575904 -1.058701 -0.092750
0.576056 -1.058557 -0.093056
0.576207 -1.058412 -0.093362
0.576357 -1.058264 -0.093668
0.576505 -1.058115 -0.093974
0.576653 -1.057963 -0.094280
0.576799 -1.057809 -0.094586
0.576945 -1.057652 -0.094892
0.577089 -1.057494 -0.095198
0.577232 -1.057334 -0.095503
0.577374 -1.057172 -0.095809
0.577516 -1.057008 -0.096114
0.577656 -1.056842 -0.096420
0.577795 -1.056674 -0.096725
0.577934 -1.056505 -0.097031
0.578071 -1.056334 -0.097336
0.578207 -1.056160 -0.097641
0.578343 -1.055985 -0.097946
0.578478 -1.055809 -0.098251
0.578611 -1.055631 -0.098556
0.578744 -1.055451 -0.098861
0.578876 -1.055269 -0.099166
0.579008 -1.055086 -0.099471
0.579138 -1.054901 -0.099776
0.579268 -1.054715 -0.100080
0.579396 -1.054527 -0.100385
0.579525 -1.054338 -0.100690
0.579652 -1.054147 -0.100994
0.579778 -1.053955 -0.101299
0.579904 -1.053762 -0.101603
0.580029 -1.053567 -0.101907
0.580153 -1.053371 -0.102212
0.580277 -1.053173 -0.102516
0.580400 -1.052974 -0.102820
0.580522 -1.052774 -0.103124
0.580644 -1.052572 -0.103428
0.580765 -1.052369 -0.103732
0.580885 -1.052165 -0.104036
0.581005 -1.051960 -0.104340
0.581124 -1.051754 -0.104644
0.581242 -1.051546 -0.104947
0.581360 -1.051338 -0.105251
0.581477 -1.051128 -0.105555
0.581594 -1.050917 -0.105858
0.581710 -1.050705 -0.106162
0.581825 -1.050492 -0.106465
0.581940 -1.050278 -0.106769
0.582054 -1.050063 -0.107072
0.582168 -1.049846 -0.107375
0.582281 -1.049629 -0.107678
0.582394 -1.049411 -0.107982
0.582506 -1.049192 -0.108285
0.582618 -1.048972 -0.108588
0.582729 -1.048751 -0.108891
0.582840 -1.048529 -0.109194
0.582950 -1.048306 -0.109496
0.583060 -1.048083 -0.109799
0.583169 -1.047858 -0.110102
0.583278 -1.047633 -0.110405
0.583387 -1.047407 -0.110707
0.583495 -1.047179 -0.111010
0.583602 -1.046952 -0.111312
0.583709 -1.046723 -0.111615
0.583816 -1.046494 -0.111917
0.583922 -1.046263 -0.112220
0.584028 -1.046033 -0.112522
0.584133 -1.045801 -0.112824
0.584239 -1.045568 -0.113126
0.584343 -1.045335 -0.113428
0.584448 -1.045102 -0.113730
0.584551 -1.044867 -0.114032
0.584655 -1.044632 -0.114334
0.584758 -1.044396 -0.114636
0.584861 -1.044160 -0.114938
0.584963 -1.043923 -0.115240
0.585066 -1.043685 -0.115542
0.585167 -1.043446 -0.115843
0.585269 -1.043207 -0.116145
0.585370 -1.042968 -0.116446
0.585471 -1.042728 -0.116748
0.585571 -1.042487 -0.117049
0.585671 -1.042246 -0.117351
0.585771 -1.042004 -0.117652
0.585871 -1.041762 -0.117953
0.585970 -1.041519 -0.118254
0.586069 -1.041275 -0.118556
0.586168 -1.041031 -0.118857
0.586266 -1.040787 -0.119158
0.586364 -1.040542 -0.119459
0.586462 -1.040296 -0.119760
0.586560 -1.040051 -0.120061
0.586657 -1.039804 -0.120361
0.586754 -1.039557 -0.120662
0.586851 -1.039310 -0.120963
0.586948 -1.039062 -0.121263
0.587044 -1.038814 -0.121564
0.587140 -1.038565 -0.121865
0.587236 -1.038316 -0.122165
0.587331 -1.038067 -0.122466
0.587427 -1.037817 -0.122766
0.587522 -1.037567 -0.123066
0.587617 -1.037316 -0.123366
0.587711 -1.037065 -0.123667
0.587806 -1.036814 -0.123967
0.587900 -1.036562 -0.124267
0.587994 -1.036310 -0.124567
0.588088 -1.036058 -0.124867
0.588181 -1.035805 -0.125167
0.588275 -1.035552 -0.125467
0.588368 -1.035298 -0.125767
0.588461 -1.035044 -0.126066
0.588554 -1.034790 -0.126366
0.588647 -1.034536 -0.126666
0.588739 -1.034281 -0.126965
0.588831 -1.034026 -0.127265
0.588923 -1.033770 -0.127564
0.589015 -1.033515 -0.127864
0.589107 -1.033259 -0.128163
0.589199 -1.033002 -0.128463
0.589290 -1.032746 -0.128762
0.589381 -1.032489 -0.129061
0.589472 -1.032232 -0.129360
0.589563 -1.031975 -0.129659
0.589654 -1.031717 -0.129959
0.589745 -1.031459 -0.130258
0.589835 -1.031201 -0.130556
0.589925 -1.030943 -0.130855
0.590016 -1.030684 -0.131154
0.590106 -1.030425 -0.131453
0.590195 -1.030166 -0.131752
0.590285 -1.029907 -0.132050
0.590375 -1.029648 -0.132349
0.590464 -1.029388 -0.132648
0.590554 -1.029128 -0.132946
0.590643 -1.028868 -0.133245
0.590732 -1.028608 -0.133543
0.590821 -1.028347 -0.133841
0.590910 -1.028086 -0.134140
0.590998 -1.027826 -0.134438
0.591087 -1.027564 -0.134736
0.591175 -1.027303 -0.135034
0.591264 -1.027042 -0.135332
0.591352 -1.026780 -0.135630
0.591440 -1.026518 -0.135928
0.591528 -1.026256 -0.136226
0.591616 -1.025994 -0.136524
0.591704 -1.025732 -0.136822
0.591791 -1.025470 -0.137120
0.591879 -1.025207 -0.137418
0.591966 -1.024944 -0.137715
0.592054 -1.024681 -0.138013
0.592141 -1.024418 -0.138310
0.592228 -1.024155 -0.138608
0.592315 -1.023892 -0.138905
0.592402 -1.023629 -0.139203
0.592489 -1.023365 -0.139500
0.592576 -1.023101 -0.139797
0.592662 -1.022838 -0.140095
0.592749 -1.022574 -0.140392
0.592836 -1.022310 -0.140689
0.592922 -1.022045 -0.140986
0.593008 -1.021781 -0.141283
0.593095 -1.021517 -0.141580
0.593181 -1.021252 -0.141877
0.593267 -1.020988 -0.142174
0.593353 -1.020723 -0.142471
0.593439 -1.020458 -0.142768
0.593525 -1.020193 -0.143064
0.593610 -1.019928 -0.143361
0.593696 -1.019663 -0.143657
0.593782 -1.019398 -0.143954
0.593867 -1.019132 -0.144251
0.593953 -1.018867 -0.144547
0.594038 -1.018602 -0.144843
0.594124 -1.018336 -0.145140
0.594209 -1.018070 -0.145436
0.594294 -1.017805 -0.145732
0.594379 -1.017539 -0.146028
0.594464 -1.017273 -0.146325
0.594549 -1.017007 -0.146621
0.594634 -1.016741 -0.146917
0.594719 -1.016475 -0.147213
0.594804 -1.016209 -0.147509
0.594889 -1.015943 -0.147804
0.594974 -1.015676 -0.148100
0.595058 -1.015410 -0.148396
0.595143 -1.015144 -0.148692
0.595227 -1.014877 -0.148987
0.595312 -1.014611 -0.149283
0.595396 -1.014344 -0.149578
0.595481 -1.014077 -0.149874
0.595565 -1.013811 -0.150169
0.595649 -1.013544 -0.150465
0.595733 -1.013277 -0.150760
0.595818 -1.013010 -0.151055
0.595902 -1.012744 -0.151351
0.595986 -1.012477 -0.151646
0.596070 -1.012210 -0.151941
0.596154 -1.011943 -0.152236
0.596238 -1.011676 -0.152531
0.596322 -1.011409 -0.152826
0.596405 -1.011141 -0.153121
0.596489 -1.010874 -0.153416
0.596573 -1.010607 -0.153711
0.596657 -1.010340 -0.154005
0.596740 -1.010073 -0.154300
0.596824 -1.009805 -0.154595
0.596907 -1.009538 -0.154889
0.596991 -1.009271 -0.155184
0.597074 -1.009003 -0.155478
0.597158 -1.008736 -0.155773
0.597241 -1.008469 -0.156067
0.597325 -1.008201 -0.156362
0.597408 -1.007934 -0.156656
0.597491 -1.007666 -0.156950
0.597575 -1.007399 -0.157244
0.597658 -1.007131 -0.157539
0.597741 -1.006864 -0.157833
0.597824 -1.006596 -0.158127
0.597907 -1.006329 -0.158421
0.597990 -1.006061 -0.158715
0.598073 -1.005793 -0.159008
0.598156 -1.005526 -0.159302
0.598239 -1.005258 -0.159596
0.598322 -1.004990 -0.159890
0.598405 -1.004723 -0.160183
0.598488 -1.004455 -0.160477
0.598571 -1.004188 -0.160771
0.598654 -1.003920 -0.161064
0.598737 -1.003652 -0.161358
0.598819 -1.003385 -0.161651
0.598902 -1.003117 -0.161944
0.598985 -1.002849 -0.162238
0.599068 -1.002581 -0.162531
0.599150 -1.002314 -0.162824
0.599233 -1.002046 -0.163117
0.599315 -1.001778 -0.163410
0.599398 -1.001511 -0.163703
0.599481 -1.001243 -0.163996
0.599563 -1.000975 -0.164289
0.599646 -1.000708 -0.164582
0.599728 -1.000440 -0.164875
0.599811 -1.000172 -0.165168
0.599893 -0.999905 -0.165461
0.599975 -0.999637 -0.165753
0.600058 -0.999369 -0.166046
0.600140 -0.999102 -0.166338
0.600222 -0.998834 -0.166631
0.600305 -0.998566 -0.166923
0.600387 -0.998299 -0.167216
0.600469 -0.998031 -0.167508
0.600551 -0.997763 -0.167800
0.600634 -0.997496 -0.168093
0.600716 -0.997228 -0.168385
0.600798 -0.996961 -0.168677
0.600880 -0.996693 -0.168969
0.600962 -0.996425 -0.169261
0.601044 -0.996158 -0.169553
0.601126 -0.995890 -0.169845
0.601209 -0.995623 -0.170137
0.601291 -0.995355 -0.170429
0.601373 -0.995088 -0.170721
0.601455 -0.994820 -0.171013
0.601537 -0.994553 -0.171304
0.601619 -0.994285 -0.171596
0.601701 -0.994018 -0.171888
0.601782 -0.993750 -0.172179
0.601864 -0.993483 -0.172471
0.601946 -0.993216 -0.172762
0.602028 -0.992948 -0.173053
0.602110 -0.992681 -0.173345
0.602192 -0.992414 -0.173636
0.602274 -0.992146 -0.173927
0.602356 -0.991879 -0.174218
0.602437 -0.991612 -0.174510
0.602519 -0.991345 -0.174801
0.602601 -0.991077 -0.175092
0.602683 -0.990810 -0.175383
0.602764 -0.990543 -0.175674
0.602846 -0.990276 -0.175964
0.602928 -0.990009 -0.176255
0.603010 -0.989741 -0.176546
0.603091 -0.989474 -0.176837
0.603173 -0.989207 -0.177127
0.603254 -0.988940 -0.177418
0.603336 -0.988673 -0.177709
0.603418 -0.988406 -0.177999
0.603499 -0.988139 -0.178290
0.603581 -0.987872 -0.178580
0.603663 -0.987605 -0.178870
0.603744 -0.987339 -0.179161
0.603826 -0.987072 -0.179451
0.603907 -0.986805 -0.179741
0.603989 -0.986538 -0.180031
0.604070 -0.986271 -0.180321
0.604152 -0.986004 -0.180611
0.604233 -0.985738 -0.180901
0.604315 -0.985471 -0.181191
0.604396 -0.985204 -0.181481
0.604478 -0.984938 -0.181771
0.604559 -0.984671 -0.182061
0.604640 -0.984404 -0.182351
0.604722 -0.984138 -0.182640
0.604803 -0.983871 -0.182930
0.604885 -0.983605 -0.183220
0.604966 -0.983338 -0.183509
0.605047 -0.983072 -0.183799
0.605129 -0.982806 -0.184088
0.605210 -0.982539 -0.184377
0.605291 -0.982273 -0.184667
0.605373 -0.982007 -0.184956
0.605454 -0.981740 -0.185245
0.605535 -0.981474 -0.185534
0.605617 -0.981208 -0.185824
0.605698 -0.980942 -0.186113
0.605779 -0.980675 -0.186402
0.605861 -0.980409 -0.186691
0.605942 -0.980143 -0.186980
0.606023 -0.979877 -0.187268
0.606104 -0.979611 -0.187557
0.606185 -0.979345 -0.187846
0.606267 -0.979079 -0.188135
0.606348 -0.978813 -0.188423
0.606429 -0.978547 -0.188712
0.606510 -0.978281 -0.189001
0.606591 -0.978016 -0.189289
0.606673 -0.977750 -0.189578
0.606754 -0.977484 -0.189866
0.606835 -0.977218 -0.190154
0.606916 -0.976953 -0.190443
0.606997 -0.976687 -0.190731
0.607078 -0.976421 -0.191019
0.607159 -0.976156 -0.191307
0.607241 -0.975890 -0.191595
0.607322 -0.975625 -0.191884
0.607403 -0.975359 -0.192172
0.607484 -0.975094 -0.192460
0.607565 -0.974828 -0.192747
0.607646 -0.974563 -0.193035
0.607727 -0.974298 -0.193323
0.607808 -0.974032 -0.193611
0.607889 -0.973767 -0.193899
0.607970 -0.973502 -0.194186
0.608051 -0.973237 -0.194474
0.608132 -0.972972 -0.194761
0.608213 -0.972706 -0.195049
0.608294 -0.972441 -0.195336
0.608375 -0.972176 -0.195624
0.608456 -0.971911 -0.195911
0.608537 -0.971646 -0.196198
0.608618 -0.971381 -0.196486
0.608699 -0.971117 -0.196773
0.608780 -0.970852 -0.197060
0.608861 -0.970587 -0.197347
0.608942 -0.970322 -0.197634
0.609023 -0.970057 -0.197921
0.609104 -0.969793 -0.198208
0.609185 -0.969528 -0.198495
0.609266 -0.969263 -0.198782
0.609347 -0.968999 -0.199069
0.609428 -0.968734 -0.199355
0.609508 -0.968470 -0.199642
0.609589 -0.968205 -0.199929
0.609670 -0.967941 -0.200215
0.609751 -0.967676 -0.200502
0.609832 -0.967412 -0.200788
0.609913 -0.967148 -0.201075
0.609994 -0.966883 -0.201361
0.610074 -0.966619 -0.201647
0.610155 -0.966355 -0.201934
0.610236 -0.966091 -0.202220
0.610317 -0.965827 -0.202506
0.610398 -0.965563 -0.202792
0.610479 -0.965298 -0.203078
0.610559 -0.965034 -0.203364
0.610640 -0.964771 -0.203650
0.610721 -0.964507 -0.203936
0.610802 -0.964243 -0.204222
0.610883 -0.963979 -0.204508
0.610963 -0.963715 -0.204794
0.611044 -0.963451 -0.205079
0.611125 -0.963188 -0.205365
0.611206 -0.962924 -0.205651
0.611286 -0.962660 -0.205936
0.611367 -0.962397 -0.206222
0.611448 -0.962133 -0.206507
0.611529 -0.961869 -0.206793
0.611609 -0.961606 -0.207078
0.611690 -0.961342 -0.207363
0.611771 -0.961079 -0.207649
0.611852 -0.960816 -0.207934
0.611932 -0.960552 -0.208219
0.612013 -0.960289 -0.208504
0.612094 -0.960026 -0.208789
0.612174 -0.959763 -0.209074
0.612255 -0.959499 -0.209359
0.612336 -0.959236 -0.209644
0.612416 -0.958973 -0.209929
0.612497 -0.958710 -0.210214
0.612578 -0.958447 -0.210499
0.612658 -0.958184 -0.210783
0.612739 -0.957921 -0.211068
0.612820 -0.957658 -0.211353
0.612900 -0.957396 -0.211637
0.612981 -0.957133 -0.211922
0.613062 -0.956870 -0.212206
0.613142 -0.956607 -0.212491
0.613223 -0.956345 -0.212775
0.613303 -0.956082 -0.213059
0.613384 -0.955819 -0.213343
0.613465 -0.955557 -0.213628
0.613545 -0.955294 -0.213912
0.613626 -0.955032 -0.214196
0.613706 -0.954769 -0.214480
0.613787 -0.954507 -0.214764
0.613868 -0.954245 -0.215048
0.613948 -0.953982 -0.215332
0.614029 -0.953720 -0.215616
0.614109 -0.953458 -0.215900
0.614190 -0.953196 -0.216183
0.614270 -0.952933 -0.216467
0.614351 -0.952671 -0.216751
0.614432 -0.952409 -0.217034
0.614512 -0.952147 -0.217318
0.614593 -0.951885 -0.217601
0.614673 -0.951623 -0.217885
0.614754 -0.951361 -0.218168
0.614834 -0.951100 -0.218452
0.614915 -0.950838 -0.218735
0.614995 -0.950576 -0.219018
0.615076 -0.950314 -0.219301
0.615156 -0.950053 -0.219585
0.615237 -0.949791 -0.219868
0.615317 -0.949529 -0.220151
0.615398 -0.949268 -0.220434
0.615478 -0.949006 -0.220717
0.615559 -0.948745 -0.221000
0.615639 -0.948483 -0.221283
0.615720 -0.948222 -0.221565
0.615800 -0.947961 -0.221848
0.615881 -0.947699 -0.222131
0.615961 -0.947438 -0.222413
0.616041 -0.947177 -0.222696
0.616122 -0.946916 -0.222979
0.616202 -0.946654 -0.223261
0.616283 -0.946393 -0.223544
0.616363 -0.946132 -0.223826
0.616444 -0.945871 -0.224108
0.616524 -0.945610 -0.224391
0.616604 -0.945349 -0.224673
0.616685 -0.945088 -0.224955
0.616765 -0.944828 -0.225237
0.616846 -0.944567 -0.225519
0.616926 -0.944306 -0.225801
0.617006 -0.944045 -0.226083
0.617087 -0.943785 -0.226365
0.617167 -0.943524 -0.226647
0.617248 -0.943263 -0.226929
0.617328 -0.943003 -0.227211
0.617408 -0.942742 -0.227493
0.617489 -0.942482 -0.227775
0.617569 -0.942221 -0.228056
0.617649 -0.941961 -0.228338
0.617730 -0.941701 -0.228619
0.617810 -0.941440 -0.228901
0.617890 -0.941180 -0.229182
0.617971 -0.940920 -0.229464
0.618051 -0.940660 -0.229745
0.618131 -0.940399 -0.230026
0.618212 -0.940139 -0.230308
0.618292 -0.939879 -0.230589
0.618372 -0.939619 -0.230870
0.618453 -0.939359 -0.231151
0.618533 -0.939099 -0.231432
0.618613 -0.938840 -0.231713
0.618694 -0.938580 -0.231994
0.618774 -0.938320 -0.232275
0.618854 -0.938060 -0.232556
0.618934 -0.937800 -0.232837
0.619015 -0.937541 -0.233118
0.619095 -0.937281 -0.233398
0.619175 -0.937021 -0.233679
0.619256 -0.936762 -0.233960
0.619336 -0.936502 -0.234240
0.619416 -0.936243 -0.234521
0.619496 -0.935984 -0.234801
0.619577 -0.935724 -0.235082
0.619657 -0.935465 -0.235362
0.619737 -0.935206 -0.235642
0.619817 -0.934946 -0.235922
0.619897 -0.934687 -0.236203
0.619978 -0.934428 -0.236483
0.620058 -0.934169 -0.236763
0.620138 -0.933910 -0.237043
0.620218 -0.933651 -0.237323
0.620299 -0.933392 -0.237603
0.620379 -0.933133 -0.237883
0.620459 -0.932874 -0.238163
0.620539 -0.932615 -0.238443
0.620619 -0.932356 -0.238722
0.620700 -0.932097 -0.239002
0.620780 -0.931839 -0.239282
0.620860 -0.931580 -0.239561
0.620940 -0.931321 -0.239841
0.621020 -0.931063 -0.240121
0.621100 -0.930804 -0.240400
0.621181 -0.930545 -0.240679
0.621261 -0.930287 -0.240959
0.621341 -0.930028 -0.241238
0.621421 -0.929770 -0.241517
0.621501 -0.929512 -0.241797
0.621581 -0.929253 -0.242076
0.621661 -0.928995 -0.242355
0.621742 -0.928737 -0.242634
0.621822 -0.928479 -0.242913
0.621902 -0.928220 -0.243192
0.621982 -0.927962 -0.243471
0.622062 -0.927704 -0.243750
0.622142 -0.927446 -0.244029
0.622222 -0.927188 -0.244308
0.622302 -0.926930 -0.244586
0.622382 -0.926672 -0.244865
0.622463 -0.926415 -0.245144
0.622543 -0.926157 -0.245422
0.622623 -0.925899 -0.245701
0.622703 -0.925641 -0.245979
0.622783 -0.925384 -0.246258
0.622863 -0.925126 -0.246536
0.622943 -0.924868 -0.246814
0.623023 -0.924611 -0.247093
0.623103 -0.924353 -0.247371
0.623183 -0.924096 -0.247649
0.623263 -0.923838 -0.247927
0.623343 -0.923581 -0.248205
0.623423 -0.923323 -0.248483
0.623503 -0.923066 -0.248761
0.623583 -0.922809 -0.249039
0.623663 -0.922552 -0.249317
0.623744 -0.922294 -0.249595
0.623824 -0.922037 -0.249873
0.623904 -0.921780 -0.250151
0.623984 -0.921523 -0.250428
0.624064 -0.921266 -0.250706
0.624144 -0.921009 -0.250984
0.624224 -0.920752 -0.251261
0.624304 -0.920495 -0.251539
0.624384 -0.920239 -0.251816
0.624464 -0.919982 -0.252093
0.624544 -0.919725 -0.252371
0.624624 -0.919468 -0.252648
0.624704 -0.919212 -0.252925
0.624783 -0.918955 -0.253203
0.624863 -0.918698 -0.253480
0.624943 -0.918442 -0.253757
0.625023 -0.918185 -0.254034
0.625103 -0.917929 -0.254311
0.625183 -0.917672 -0.254588
0.625263 -0.917416 -0.254865
0.625343 -0.917160 -0.255142
0.625423 -0.916903 -0.255418
0.625503 -0.916647 -0.255695
0.625583 -0.916391 -0.255972
0.625663 -0.916135 -0.256249
0.625743 -0.915878 -0.256525
0.625823 -0.915622 -0.256802
0.625903 -0.915366 -0.257078
0.625983 -0.915110 -0.257355
0.626062 -0.914854 -0.257631
0.626142 -0.914598 -0.257908
0.626222 -0.914343 -0.258184
0.626302 -0.914087 -0.258460
0.626382 -0.913831 -0.258736
0.626462 -0.913575 -0.259013
0.626542 -0.913319 -0.259289
0.626622 -0.913064 -0.259565
0.626702 -0.912808 -0.259841
0.626781 -0.912553 -0.260117
0.626861 -0.912297 -0.260393
0.626941 -0.912041 -0.260669
0.627021 -0.911786 -0.260945
0.627101 -0.911531 -0.261220
0.627181 -0.911275 -0.261496
0.627261 -0.911020 -0.261772
0.627340 -0.910765 -0.262047
0.627420 -0.910509 -0.262323
0.627500 -0.910254 -0.262599
0.627580 -0.909999 -0.262874
0.627660 -0.909744 -0.263149
0.627740 -0.909489 -0.263425
0.627819 -0.909234 -0.263700
0.627899 -0.908979 -0.263975
0.627979 -0.908724 -0.264251
0.628059 -0.908469 -0.264526
0.628139 -0.908214 -0.264801
0.628218 -0.907959 -0.265076
0.628298 -0.907704 -0.265351
0.628378 -0.907449 -0.265626
0.628458 -0.907195 -0.265901
0.628537 -0.906940 -0.266176
0.628617 -0.906685 -0.266451
0.628697 -0.906431 -0.266726
0.628777 -0.906176 -0.267001
0.628857 -0.905922 -0.267275
0.628936 -0.905667 -0.267550
0.629016 -0.905413 -0.267825
0.629096 -0.905159 -0.268099
0.629176 -0.904904 -0.268374
0.629255 -0.904650 -0.268648
0.629335 -0.904396 -0.268923
0.629415 -0.904141 -0.269197
0.629494 -0.903887 -0.269471
0.629574 -0.903633 -0.269746
0.629654 -0.903379 -0.270020
0.629734 -0.903125 -0.270294
0.629813 -0.902871 -0.270568
0.629893 -0.902617 -0.270842
0.629973 -0.902363 -0.271116
0.630052 -0.902109 -0.271390
0.630132 -0.901855 -0.271664
0.630212 -0.901602 -0.271938
0.630292 -0.901348 -0.272212
0.630371 -0.901094 -0.272486
0.630451 -0.900840 -0.272759
0.630531 -0.900587 -0.273033
0.630610 -0.900333 -0.273307
0.630690 -0.900080 -0.273580
0.630770 -0.899826 -0.273854
0.630849 -0.899573 -0.274127
0.630929 -0.899319 -0.274401
0.631008 -0.899066 -0.274674
0.631088 -0.898813 -0.274948
0.631168 -0.898559 -0.275221
0.631247 -0.898306 -0.275494
0.631327 -0.898053 -0.275767
0.631407 -0.897800 -0.276040
0.631486 -0.897546 -0.276314
0.631566 -0.897293 -0.276587
0.631646 -0.897040 -0.276860
0.631725 -0.896787 -0.277133
0.631805 -0.896534 -0.277406
0.631884 -0.896281 -0.277678
0.631964 -0.896028 -0.277951
0.632044 -0.895776 -0.278224
0.632123 -0.895523 -0.278497
0.632203 -0.895270 -0.278769
0.632282 -0.895017 -0.279042
0.632362 -0.894765 -0.279315
0.632441 -0.894512 -0.279587
0.632521 -0.894259 -0.279860
0.632601 -0.894007 -0.280132
0.632680 -0.893754 -0.280404
0.632760 -0.893502 -0.280677
0.632839 -0.893249 -0.280949
0.632919 -0.892997 -0.281221
0.632998 -0.892745 -0.281494
0.633078 -0.892492 -0.281766
0.633157 -0.892240 -0.282038
0.633237 -0.891988 -0.282310
0.633317 -0.891736 -0.282582
0.633396 -0.891484 -0.282854
0.633476 -0.891231 -0.283126
0.633555 -0.890979 -0.283397
0.633635 -0.890727 -0.283669
0.633714 -0.890475 -0.283941
0.633794 -0.890223 -0.284213
0.633873 -0.889972 -0.284484
0.633953 -0.889720 -0.284756
0.634032 -0.889468 -0.285028
0.634112 -0.889216 -0.285299
0.634191 -0.888964 -0.285571
0.634271 -0.888713 -0.285842
0.634350 -0.888461 -0.286113
0.634429 -0.888209 -0.286385
0.634509 -0.887958 -0.286656
0.634588 -0.887706 -0.286927
0.634668 -0.887455 -0.287198
0.634747 -0.887203 -0.287470
0.634827 -0.886952 -0.287741
0.634906 -0.886701 -0.288012
0.634986 -0.886449 -0.288283
0.635065 -0.886198 -0.288554
0.635145 -0.885947 -0.288824
0.635224 -0.885696 -0.289095
0.635303 -0.885444 -0.289366
0.635383 -0.885193 -0.289637
0.635462 -0.884942 -0.289908
0.635542 -0.884691 -0.290178
0.635621 -0.884440 -0.290449
0.635700 -0.884189 -0.290719
0.635780 -0.883938 -0.290990
0.635859 -0.883688 -0.291260
0.635939 -0.883437 -0.291531
0.636018 -0.883186 -0.291801
0.636097 -0.882935 -0.292071
0.636177 -0.882684 -0.292342
0.636256 -0.882434 -0.292612
0.636336 -0.882183 -0.292882
0.636415 -0.881933 -0.293152
0.636494 -0.881682 -0.293422
0.636574 -0.881432 -0.293692
0.636653 -0.881181 -0.293962
0.636732 -0.880931 -0.294232
0.636812 -0.880680 -0.294502
0.636891 -0.880430 -0.294772
0.636970 -0.880180 -0.295042
0.637050 -0.879929 -0.295311
0.637129 -0.879679 -0.295581
0.637208 -0.879429 -0.295851
0.637288 -0.879179 -0.296120
0.637367 -0.878929 -0.296390
0.637446 -0.878679 -0.296659
0.637526 -0.878429 -0.296929
0.637605 -0.878179 -0.297198
0.637684 -0.877929 -0.297468
0.637763 -0.877679 -0.297737
0.637843 -0.877429 -0.298006
0.637922 -0.877179 -0.298275
0.638001 -0.876929 -0.298545
0.638081 -0.876680 -0.298814
0.638160 -0.876430 -0.299083
0.638239 -0.876180 -0.299352
0.638318 -0.875931 -0.299621
0.638398 -0.875681 -0.299890
0.638477 -0.875432 -0.300159
0.638556 -0.875182 -0.300427
0.638635 -0.874933 -0.300696
0.638715 -0.874683 -0.300965
0.638794 -0.874434 -0.301234
0.638873 -0.874185 -0.301502
0.638952 -0.873935 -0.301771
0.639032 -0.873686 -0.302039
0.639111 -0.873437 -0.302308
0.639190 -0.873188 -0.302576
0.639269 -0.872939 -0.302845
0.639348 -0.872690 -0.303113
0.639428 -0.872441 -0.303381
0.639507 -0.872192 -0.303650
0.639586 -0.871943 -0.303918
0.639665 -0.871694 -0.304186
0.639744 -0.871445 -0.304454
0.639824 -0.871196 -0.304722
0.639903 -0.870947 -0.304990
0.639982 -0.870698 -0.305258
0.640061 -0.870450 -0.305526
0.640140 -0.870201 -0.305794
0.640220 -0.869952 -0.306062
0.640299 -0.869704 -0.306330
0.640378 -0.869455 -0.306597
0.640457 -0.869207 -0.306865
0.640536 -0.868958 -0.307133
0.640615 -0.868710 -0.307400
0.640694 -0.868461 -0.307668
0.640774 -0.868213 -0.307935
0.640853 -0.867965 -0.308203
0.640932 -0.867717 -0.308470
0.641011 -0.867468 -0.308738
0.641090 -0.867220 -0.309005
0.641169 -0.866972 -0.309272
0.641248 -0.866724 -0.309539
0.641327 -0.866476 -0.309807
0.641407 -0.866228 -0.310074
0.641486 -0.865980 -0.310341
0.641565 -0.865732 -0.310608
0.641644 -0.865484 -0.310875
0.641723 -0.865236 -0.311142
0.641802 -0.864988 -0.311409
0.641881 -0.864740 -0.311675
0.641960 -0.864493 -0.311942
0.642039 -0.864245 -0.312209
0.642118 -0.863997 -0.312476
0.642197 -0.863750 -0.312742
0.642276 -0.863502 -0.313009
0.642355 -0.863255 -0.313275
0.642434 -0.863007 -0.313542
0.642514 -0.862760 -0.313808
0.642593 -0.862512 -0.314075
0.642672 -0.862265 -0.314341
0.642751 -0.862017 -0.314607
0.642830 -0.861770 -0.314874
0.642909 -0.861523 -0.315140
0.642988 -0.861276 -0.315406
0.643067 -0.861028 -0.315672
0.643146 -0.860781 -0.315938
0.643225 -0.860534 -0.316204
0.643304 -0.860287 -0.316470
0.643383 -0.860040 -0.316736
0.643462 -0.859793 -0.317002
0.643541 -0.859546 -0.317268
0.643620 -0.859299 -0.317534
0.643699 -0.859052 -0.317800
0.643778 -0.858806 -0.318065
0.643857 -0.858559 -0.318331
0.643936 -0.858312 -0.318596
0.644015 -0.858065 -0.318862
0.644094 -0.857819 -0.319128
0.644172 -0.857572 -0.319393
0.644251 -0.857326 -0.319658
0.644330 -0.857079 -0.319924
0.644409 -0.856832 -0.320189
0.644488 -0.856586 -0.320454
0.644567 -0.856340 -0.320720
0.644646 -0.856093 -0.320985
0.644725 -0.855847 -0.321250
0.644804 -0.855601 -0.321515
0.644883 -0.855354 -0.321780
0.644962 -0.855108 -0.322045
0.645041 -0.854862 -0.322310
0.645120 -0.854616 -0.322575
0.645199 -0.854370 -0.322840
0.645277 -0.854124 -0.323105
0.645356 -0.853878 -0.323369
0.645435 -0.853632 -0.323634
0.645514 -0.853386 -0.323899
0.645593 -0.853140 -0.324163
0.645672 -0.852894 -0.324428
0.645751 -0.852648 -0.324692
0.645830 -0.852402 -0.324957
0.645908 -0.852156 -0.325221
0.645987 -0.851911 -0.325486
0.646066 -0.851665 -0.325750
0.646145 -0.851419 -0.326014
0.646224 -0.851174 -0.326279
0.646303 -0.850928 -0.326543
0.646382 -0.850683 -0.326807
0.646460 -0.850437 -0.327071
0.646539 -0.850192 -0.327335
0.646618 -0.849947 -0.327599
0.646697 -0.849701 -0.327863
0.646776 -0.849456 -0.328127
0.646854 -0.849211 -0.328391
0.646933 -0.848965 -0.328655
0.647012 -0.848720 -0.328918
0.647091 -0.848475 -0.329182
0.647170 -0.848230 -0.329446
0.647248 -0.847985 -0.329709
0.647327 -0.847740 -0.329973
0.647406 -0.847495 -0.330236
0.647485 -0.847250 -0.330500
0.647564 -0.847005 -0.330763
0.647642 -0.846760 -0.331027
0.647721 -0.846515 -0.331290
0.647800 -0.846270 -0.331553
0.647879 -0.846026 -0.331817
0.647957 -0.845781 -0.332080
0.648036 -0.845536 -0.332343
0.648115 -0.845292 -0.332606
0.648194 -0.845047 -0.332869
0.648272 -0.844803 -0.333132
0.648351 -0.844558 -0.333395
0.648430 -0.844314 -0.333658
0.648509 -0.844069 -0.333921
0.648587 -0.843825 -0.334184
0.648666 -0.843580 -0.334447
0.648745 -0.843336 -0.334709
0.648823 -0.843092 -0.334972
0.648902 -0.842848 -0.335235
0.648981 -0.842603 -0.335497
0.649059 -0.842359 -0.335760
0.649138 -0.842115 -0.336022
0.649217 -0.841871 -0.336285
0.649296 -0.841627 -0.336547
0.649374 -0.841383 -0.336810
0.649453 -0.841139 -0.337072
0.649532 -0.840895 -0.337334
0.649610 -0.840651 -0.337597
0.649689 -0.840407 -0.337859
0.649767 -0.840163 -0.338121
0.649846 -0.839920 -0.338383
0.649925 -0.839676 -0.338645
0.650003 -0.839432 -0.338907
0.650082 -0.839189 -0.339169
0.650161 -0.838945 -0.339431
0.650239 -0.838701 -0.339693
0.650318 -0.838458 -0.339954
0.650397 -0.838214 -0.340216
0.650475 -0.837971 -0.340478
0.650554 -0.837728 -0.340740
0.650632 -0.837484 -0.341001
0.650711 -0.837241 -0.341263
0.650790 -0.836998 -0.341524
0.650868 -0.836754 -0.341786
0.650947 -0.836511 -0.342047
0.651025 -0.836268 -0.342309
0.651104 -0.836025 -0.342570
0.651183 -0.835782 -0.342831
0.651261 -0.835539 -0.343093
0.651340 -0.835296 -0.343354
0.651418 -0.835053 -0.343615
0.651497 -0.834810 -0.343876
0.651575 -0.834567 -0.344137
0.651654 -0.834324 -0.344398
0.651732 -0.834081 -0.344659
0.651811 -0.833838 -0.344920
0.651890 -0.833595 -0.345181
0.651968 -0.833353 -0.345442
0.652047 -0.833110 -0.345702
0.652125 -0.832867 -0.345963
0.652204 -0.832625 -0.346224
0.652282 -0.832382 -0.346485
0.652361 -0.832140 -0.346745
0.652439 -0.831897 -0.347006
0.652518 -0.831655 -0.347266
0.652596 -0.831412 -0.347527
0.652675 -0.831170 -0.347787
0.652753 -0.830928 -0.348047
0.652832 -0.830685 -0.348308
0.652910 -0.830443 -0.348568
0.652989 -0.830201 -0.348828
0.653067 -0.829959 -0.349088
0.653146 -0.829717 -0.349349
0.653224 -0.829475 -0.349609
0.653303 -0.829233 -0.349869
0.653381 -0.828991 -0.350129
0.653459 -0.828749 -0.350389
0.653538 -0.828507 -0.350649
0.653616 -0.828265 -0.350908
0.653695 -0.828023 -0.351168
0.653773 -0.827781 -0.351428
0.653852 -0.827539 -0.351688
0.653930 -0.827298 -0.351947
0.654008 -0.827056 -0.352207
0.654087 -0.826814 -0.352467
0.654165 -0.826573 -0.352726
0.654244 -0.826331 -0.352986
0.654322 -0.826090 -0.353245
0.654401 -0.825848 -0.353505
0.654479 -0.825607 -0.353764
0.654557 -0.825365 -0.354023
0.654636 -0.825124 -0.354282
0.654714 -0.824882 -0.354542
0.654792 -0.824641 -0.354801
0.654871 -0.824400 -0.355060
0.654949 -0.824159 -0.355319
0.655028 -0.823917 -0.355578
0.655106 -0.823676 -0.355837
0.655184 -0.823435 -0.356096
0.655263 -0.823194 -0.356355
0.655341 -0.822953 -0.356614
0.655419 -0.822712 -0.356873
0.655498 -0.822471 -0.357131
0.655576 -0.822230 -0.357390
0.655654 -0.821989 -0.357649
0.655733 -0.821748 -0.357907
0.655811 -0.821508 -0.358166
0.655889 -0.821267 -0.358424
0.655968 -0.821026 -0.358683
0.656046 -0.820785 -0.358941
0.656124 -0.820545 -0.359200
0.656203 -0.820304 -0.359458
0.656281 -0.820063 -0.359716
0.656359 -0.819823 -0.359974
0.656437 -0.819582 -0.360233
0.656516 -0.819342 -0.360491
0.656594 -0.819102 -0.360749
0.656672 -0.818861 -0.361007
0.656751 -0.818621 -0.361265
0.656829 -0.818381 -0.361523
0.656907 -0.818140 -0.361781
0.656985 -0.817900 -0.362039
0.657064 -0.817660 -0.362297
0.657142 -0.817420 -0.362554
0.657220 -0.817180 -0.362812
0.657298 -0.816940 -0.363070
0.657377 -0.816699 -0.363328
0.657455 -0.816459 -0.363585
0.657533 -0.816220 -0.363843
0.657611 -0.815980 -0.364100
0.657689 -0.815740 -0.364358
0.657768 -0.815500 -0.364615
0.657846 -0.815260 -0.364872
0.657924 -0.815020 -0.365130
0.658002 -0.814781 -0.365387
0.658081 -0.814541 -0.365644
0.658159 -0.814301 -0.365902
0.658237 -0.814062 -0.366159
0.658315 -0.813822 -0.366416
0.658393 -0.813582 -0.366673
0.658471 -0.813343 -0.366930
0.658550 -0.813104 -0.367187
0.658628 -0.812864 -0.367444
0.658706 -0.812625 -0.367701
0.658784 -0.812385 -0.367957
0.658862 -0.812146 -0.368214
0.658940 -0.811907 -0.368471
0.659019 -0.811668 -0.368728
0.659097 -0.811428 -0.368984
0.659175 -0.811189 -0.369241
0.659253 -0.810950 -0.369497
0.659331 -0.810711 -0.369754
0.659409 -0.810472 -0.370010
0.659487 -0.810233 -0.370267
0.659565 -0.809994 -0.370523
0.659644 -0.809755 -0.370779
0.659722 -0.809516 -0.371036
0.659800 -0.809277 -0.371292
0.659878 -0.809039 -0.371548
0.659956 -0.808800 -0.371804
0.660034 -0.808561 -0.372060
0.660112 -0.808322 -0.372316
0.660190 -0.808084 -0.372572
0.660268 -0.807845 -0.372828
0.660346 -0.807606 -0.373084
0.660424 -0.807368 -0.373340
0.660503 -0.807129 -0.373596
0.660581 -0.806891 -0.373852
0.660659 -0.806652 -0.374108
0.660737 -0.806414 -0.374363
0.660815 -0.806176 -0.374619
0.660893 -0.805937 -0.374874
0.660971 -0.805699 -0.375130
0.661049 -0.805461 -0.375386
0.661127 -0.805223 -0.375641
0.661205 -0.804985 -0.375896
0.661283 -0.804746 -0.376152
0.661361 -0.804508 -0.376407
0.661439 -0.804270 -0.376662
0.661517 -0.804032 -0.376918
0.661595 -0.803794 -0.377173
0.661673 -0.803556 -0.377428
0.661751 -0.803318 -0.377683
0.661829 -0.803081 -0.377938
0.661907 -0.802843 -0.378193
0.661985 -0.802605 -0.378448
0.662063 -0.802367 -0.378703
0.662141 -0.802130 -0.378958
0.662219 -0.801892 -0.379213
0.662297 -0.801654 -0.379467
0.662375 -0.801417 -0.379722
0.662453 -0.801179 -0.379977
0.662531 -0.800942 -0.380231
0.662609 -0.800704 -0.380486
0.662687 -0.800467 -0.380741
0.662764 -0.800229 -0.380995
0.662842 -0.799992 -0.381250
0.662920 -0.799755 -0.381504
0.662998 -0.799517 -0.381758
0.663076 -0.799280 -0.382013
0.663154 -0.799043 -0.382267
0.663232 -0.798806 -0.382521
0.663310 -0.798568 -0.382775
0.663388 -0.798331 -0.383030
0.663466 -0.798094 -0.383284
0.663544 -0.797857 -0.383538
0.663622 -0.797620 -0.383792
0.663699 -0.797383 -0.384046
0.663777 -0.797146 -0.384300
0.663855 -0.796909 -0.384553
0.663933 -0.796673 -0.384807
0.664011 -0.796436 -0.385061
0.664089 -0.796199 -0.385315
0.664167 -0.795962 -0.385568
0.664244 -0.795726 -0.385822
0.664322 -0.795489 -0.386076
0.664400 -0.795252 -0.386329
0.664478 -0.795016 -0.386583
0.664556 -0.794779 -0.386836
0.664634 -0.794543 -0.387090
0.664712 -0.794306 -0.387343
0.664789 -0.794070 -0.387596
0.664867 -0.793834 -0.387850
0.664945 -0.793597 -0.388103
0.665023 -0.793361 -0.388356
0.665101 -0.793125 -0.388609
0.665178 -0.792888 -0.388862
0.665256 -0.792652 -0.389115
0.665334 -0.792416 -0.389368
0.665412 -0.792180 -0.389621
0.665490 -0.791944 -0.389874
0.665567 -0.791708 -0.390127
0.665645 -0.791472 -0.390380
0.665723 -0.791236 -0.390633
0.665801 -0.791000 -0.390886
0.665878 -0.790764 -0.391138
0.665956 -0.790528 -0.391391
0.666034 -0.790292 -0.391643
0.666112 -0.790056 -0.391896
0.666189 -0.789821 -0.392149
0.666267 -0.789585 -0.392401
0.666345 -0.789349 -0.392653
0.666423 -0.789114 -0.392906
0.666500 -0.788878 -0.393158
0.666578 -0.788642 -0.393410
0.666656 -0.788407 -0.393663
0.666734 -0.788171 -0.393915
0.666811 -0.787936 -0.394167
0.666889 -0.787701 -0.394419
0.666967 -0.787465 -0.394671
0.667044 -0.787230 -0.394923
0.667122 -0.786995 -0.395175
0.667200 -0.786759 -0.395427
0.667277 -0.786524 -0.395679
0.667355 -0.786289 -0.395931
0.667433 -0.786054 -0.396183
0.667510 -0.785819 -0.396435
0.667588 -0.785584 -0.396686
0.667666 -0.785349 -0.396938
0.667743 -0.785114 -0.397190
0.667821 -0.784879 -0.397441
0.667899 -0.784644 -0.397693
0.667976 -0.784409 -0.397944
0.668054 -0.784174 -0.398196
0.668132 -0.783939 -0.398447
0.668209 -0.783704 -0.398698
0.668287 -0.783470 -0.398950
0.668365 -0.783235 -0.399201
0.668442 -0.783000 -0.399452
0.668520 -0.782766 -0.399703
0.668597 -0.782531 -0.399954
0.668675 -0.782296 -0.400205
0.668753 -0.782062 -0.400457
0.668830 -0.781827 -0.400707
0.668908 -0.781593 -0.400958
0.668985 -0.781359 -0.401209
0.669063 -0.781124 -0.401460
0.669140 -0.780890 -0.401711
0.669218 -0.780656 -0.401962
0.669296 -0.780421 -0.402213
0.669373 -0.780187 -0.402463
0.669451 -0.779953 -0.402714
0.669528 -0.779719 -0.402964
0.669606 -0.779485 -0.403215
0.669683 -0.779251 -0.403465
0.669761 -0.779016 -0.403716
0.669838 -0.778782 -0.403966
0.669916 -0.778549 -0.404217
0.669994 -0.778315 -0.404467
0.670071 -0.778081 -0.404717
0.670149 -0.777847 -0.404968
0.670226 -0.777613 -0.405218
0.670304 -0.777379 -0.405468
0.670381 -0.777146 -0.405718
0.670459 -0.776912 -0.405968
0.670536 -0.776678 -0.406218
0.670614 -0.776445 -0.406468
0.670691 -0.776211 -0.406718
0.670769 -0.775977 -0.406968
0.670846 -0.775744 -0.407218
0.670924 -0.775510 -0.407467
0.671001 -0.775277 -0.407717
0.671079 -0.775044 -0.407967
0.671156 -0.774810 -0.408217
0.671233 -0.774577 -0.408466
0.671311 -0.774344 -0.408716
0.671388 -0.774110 -0.408965
0.671466 -0.773877 -0.409215
0.671543 -0.773644 -0.409464
0.671621 -0.773411 -0.409714
0.671698 -0.773178 -0.409963
0.671776 -0.772944 -0.410212
0.671853 -0.772711 -0.410461
0.671930 -0.772478 -0.410711
0.672008 -0.772245 -0.410960
0.672085 -0.772013 -0.411209
0.672163 -0.771780 -0.411458
0.672240 -0.771547 -0.411707
0.672317 -0.771314 -0.411956
0.672395 -0.771081 -0.412205
0.672472 -0.770848 -0.412454
0.672550 -0.770616 -0.412703
0.672627 -0.770383 -0.412952
0.672704 -0.770150 -0.413200
0.672782 -0.769918 -0.413449
0.672859 -0.769685 -0.413698
0.672936 -0.769453 -0.413946
0.673014 -0.769220 -0.414195
0.673091 -0.768988 -0.414444
0.673168 -0.768755 -0.414692
0.673246 -0.768523 -0.414940
0.673323 -0.768291 -0.415189
0.673400 -0.768058 -0.415437
0.673478 -0.767826 -0.415686
0.673555 -0.767594 -0.415934
0.673632 -0.767362 -0.416182
0.673710 -0.767130 -0.416430
0.673787 -0.766897 -0.416678
0.673864 -0.766665 -0.416927
0.673942 -0.766433 -0.417175
0.674019 -0.766201 -0.417423
0.674096 -0.765969 -0.417671
0.674174 -0.765737 -0.417918
0.674251 -0.765505 -0.418166
0.674328 -0.765274 -0.418414
0.674405 -0.765042 -0.418662
0.674483 -0.764810 -0.418910
0.674560 -0.764578 -0.419157
0.674637 -0.764346 -0.419405
0.674715 -0.764115 -0.419653
0.674792 -0.763883 -0.419900
0.674869 -0.763652 -0.420148
0.674946 -0.763420 -0.420395
0.675024 -0.763188 -0.420643
0.675101 -0.762957 -0.420890
0.675178 -0.762725 -0.421138
0.675255 -0.762494 -0.421385
0.675332 -0.762263 -0.421632
0.675410 -0.762031 -0.421879
0.675487 -0.761800 -0.422126
0.675564 -0.761569 -0.422374
0.675641 -0.761337 -0.422621
0.675718 -0.761106 -0.422868
0.675796 -0.760875 -0.423115
0.675873 -0.760644 -0.423362
0.675950 -0.760413 -0.423609
0.676027 -0.760182 -0.423855
0.676104 -0.759951 -0.424102
0.676182 -0.759720 -0.424349
0.676259 -0.759489 -0.424596
0.676336 -0.759258 -0.424843
0.676413 -0.759027 -0.425089
0.676490 -0.758796 -0.425336
0.676567 -0.758565 -0.425582
0.676645 -0.758335 -0.425829
0.676722 -0.758104 -0.426075
0.676799 -0.757873 -0.426322
0.676876 -0.757642 -0.426568
0.676953 -0.757412 -0.426814
0.677030 -0.757181 -0.427061
0.677107 -0.756951 -0.427307
0.677184 -0.756720 -0.427553
0.677262 -0.756490 -0.427799
0.677339 -0.756259 -0.428046
0.677416 -0.756029 -0.428292
0.677493 -0.755798 -0.428538
0.677570 -0.755568 -0.428784
0.677647 -0.755338 -0.429030
0.677724 -0.755108 -0.429275
0.677801 -0.754877 -0.429521
0.677878 -0.754647 -0.429767
0.677955 -0.754417 -0.430013
0.678032 -0.754187 -0.430259
0.678110 -0.753957 -0.430504
0.678187 -0.753727 -0.430750
0.678264 -0.753497 -0.430996
0.678341 -0.753267 -0.431241
0.678418 -0.753037 -0.431487
0.678495 -0.752807 -0.431732
0.678572 -0.752577 -0.431977
0.678649 -0.752347 -0.432223
0.678726 -0.752117 -0.432468
0.678803 -0.751888 -0.432713
0.678880 -0.751658 -0.432959
0.678957 -0.751428 -0.433204
0.679034 -0.751198 -0.433449
0.679111 -0.750969 -0.433694
0.679188 -0.750739 -0.433939
0.679265 -0.750510 -0.434184
0.679342 -0.750280 -0.434429
0.679419 -0.750051 -0.434674
0.679496 -0.749821 -0.434919
0.679573 -0.749592 -0.435164
0.679650 -0.749363 -0.435409
0.679727 -0.749133 -0.435654
0.679804 -0.748904 -0.435898
0.679881 -0.748675 -0.436143
0.679958 -0.748445 -0.436388
0.680035 -0.748216 -0.436632
0.680112 -0.747987 -0.436877
0.680189 -0.747758 -0.437121
0.680266 -0.747529 -0.437366
0.680342 -0.747300 -0.437610
0.680419 -0.747071 -0.437854
0.680496 -0.746842 -0.438099
0.680573 -0.746613 -0.438343
0.680650 -0.746384 -0.438587
0.680727 -0.746155 -0.438831
0.680804 -0.745926 -0.439076
0.680881 -0.745698 -0.439320
0.680958 -0.745469 -0.439564
0.681035 -0.745240 -0.439808
0.681112 -0.745011 -0.440052
0.681188 -0.744783 -0.440296
0.681265 -0.744554 -0.440540
0.681342 -0.744326 -0.440784
0.681419 -0.744097 -0.441027
0.681496 -0.743869 -0.441271
0.681573 -0.743640 -0.441515
0.681650 -0.743412 -0.441758
0.681727 -0.743183 -0.442002
0.681803 -0.742955 -0.442246
0.681880 -0.742727 -0.442489
0.681957 -0.742498 -0.442733
0.682034 -0.742270 -0.442976
0.682111 -0.742042 -0.443220
0.682188 -0.741814 -0.443463
0.682264 -0.741585 -0.443706
0.682341 -0.741357 -0.443950
0.682418 -0.741129 -0.444193
0.682495 -0.740901 -0.444436
0.682572 -0.740673 -0.444679
0.682648 -0.740445 -0.444922
0.682725 -0.740217 -0.445165
0.682802 -0.739989 -0.445408
0.682879 -0.739762 -0.445651
0.682956 -0.739534 -0.445894
0.683032 -0.739306 -0.446137
0.683109 -0.739078 -0.446380
0.683186 -0.738850 -0.446623
0.683263 -0.738623 -0.446866
0.683339 -0.738395 -0.447108
0.683416 -0.738168 -0.447351
0.683493 -0.737940 -0.447594
0.683570 -0.737712 -0.447836
0.683646 -0.737485 -0.448079
0.683723 -0.737257 -0.448321
0.683800 -0.737030 -0.448564
0.683877 -0.736803 -0.448806
0.683953 -0.736575 -0.449049
0.684030 -0.736348 -0.449291
0.684107 -0.736121 -0.449533
0.684183 -0.735893 -0.449775
0.684260 -0.735666 -0.450018
0.684337 -0.735439 -0.450260
0.684414 -0.735212 -0.450502
0.684490 -0.734985 -0.450744
0.684567 -0.734758 -0.450986
0.684644 -0.734531 -0.451228
0.684720 -0.734304 -0.451470
0.684797 -0.734077 -0.451712
0.684874 -0.733850 -0.451954
0.684950 -0.733623 -0.452195
0.685027 -0.733396 -0.452437
0.685104 -0.733169 -0.452679
0.685180 -0.732942 -0.452921
0.685257 -0.732715 -0.453162
0.685334 -0.732489 -0.453404
0.685410 -0.732262 -0.453645
0.685487 -0.732035 -0.453887
0.685564 -0.731809 -0.454128
0.685640 -0.731582 -0.454370
0.685717 -0.731356 -0.454611
0.685793 -0.731129 -0.454853
0.685870 -0.730903 -0.455094
0.685947 -0.730676 -0.455335
0.686023 -0.730450 -0.455576
0.686100 -0.730223 -0.455818
0.686176 -0.729997 -0.456059
0.686253 -0.729771 -0.456300
0.686330 -0.729545 -0.456541
0.686406 -0.729318 -0.456782
0.686483 -0.729092 -0.457023
0.686559 -0.728866 -0.457264
0.686636 -0.728640 -0.457504
0.686712 -0.728414 -0.457745
0.686789 -0.728188 -0.457986
0.686866 -0.727962 -0.458227
0.686942 -0.727736 -0.458468
0.687019 -0.727510 -0.458708
0.687095 -0.727284 -0.458949
0.687172 -0.727058 -0.459189
0.687248 -0.726832 -0.459430
0.687325 -0.726606 -0.459670
0.687401 -0.726380 -0.459911
0.687478 -0.726155 -0.460151
0.687554 -0.725929 -0.460392
0.687631 -0.725703 -0.460632
0.687707 -0.725478 -0.460872
0.687784 -0.725252 -0.461112
0.687860 -0.725027 -0.461352
0.687937 -0.724801 -0.461593
0.688013 -0.724575 -0.461833
0.688090 -0.724350 -0.462073
0.688166 -0.724125 -0.462313
0.688243 -0.723899 -0.462553
0.688319 -0.723674 -0.462793
0.688396 -0.723449 -0.463033
0.688472 -0.723223 -0.463272
0.688549 -0.722998 -0.463512
0.688625 -0.722773 -0.463752
0.688701 -0.722548 -0.463992
0.688778 -0.722322 -0.464231
0.688854 -0.722097 -0.464471
0.688931 -0.721872 -0.464710
0.689007 -0.721647 -0.464950
0.689084 -0.721422 -0.465190
0.689160 -0.721197 -0.465429
0.689236 -0.720972 -0.465668
0.689313 -0.720747 -0.465908
0.689389 -0.720523 -0.466147
0.689466 -0.720298 -0.466386
0.689542 -0.720073 -0.466626
0.689618 -0.719848 -0.466865
0.689695 -0.719623 -0.467104
0.689771 -0.719399 -0.467343
0.689848 -0.719174 -0.467582
0.689924 -0.718949 -0.467821
0.690000 -0.718725 -0.468060
0.690077 -0.718500 -0.468299
0.690153 -0.718276 -0.468538
0.690229 -0.718051 -0.468777
0.690306 -0.717827 -0.469016
0.690382 -0.717602 -0.469254
0.690458 -0.717378 -0.469493
0.690535 -0.717154 -0.469732
0.690611 -0.716929 -0.469970
0.690687 -0.716705 -0.470209
0.690764 -0.716481 -0.470448
0.690840 -0.716257 -0.470686
0.690916 -0.716033 -0.470925
0.690993 -0.715808 -0.471163
0.691069 -0.715584 -0.471401
0.691145 -0.715360 -0.471640
0.691222 -0.715136 -0.471878
0.691298 -0.714912 -0.472116
0.691374 -0.714688 -0.472355
0.691450 -0.714464 -0.472593
0.691527 -0.714240 -0.472831
0.691603 -0.714017 -0.473069
0.691679 -0.713793 -0.473307
0.691756 -0.713569 -0.473545
0.691832 -0.713345 -0.473783
0.691908 -0.713122 -0.474021
0.691984 -0.712898 -0.474259
0.692061 -0.712674 -0.474497
0.692137 -0.712451 -0.474734
0.692213 -0.712227 -0.474972
0.692289 -0.712003 -0.475210
0.692365 -0.711780 -0.475447
0.692442 -0.711556 -0.475685
0.692518 -0.711333 -0.475923
0.692594 -0.711110 -0.476160
0.692670 -0.710886 -0.476398
0.692747 -0.710663 -0.476635
0.692823 -0.710440 -0.476873
0.692899 -0.710216 -0.477110
0.692975 -0.709993 -0.477347
0.693051 -0.709770 -0.477585
0.693128 -0.709547 -0.477822
0.693204 -0.709324 -0.478059
0.693280 -0.709101 -0.478296
0.693356 -0.708877 -0.478533
0.693432 -0.708654 -0.478770
0.693508 -0.708431 -0.479007
0.693585 -0.708208 -0.479244
0.693661 -0.707986 -0.479481
0.693737 -0.707763 -0.479718
0.693813 -0.707540 -0.479955
0.693889 -0.707317 -0.480192
0.693965 -0.707094 -0.480429
0.694041 -0.706871 -0.480665
0.694117 -0.706649 -0.480902
0.694194 -0.706426 -0.481139
0.694270 -0.706203 -0.481375
0.694346 -0.705981 -0.481612
0.694422 -0.705758 -0.481848
0.694498 -0.705536 -0.482085
0.694574 -0.705313 -0.482321
0.694650 -0.705091 -0.482558
0.694726 -0.704868 -0.482794
0.694802 -0.704646 -0.483030
0.694878 -0.704423 -0.483267
0.694955 -0.704201 -0.483503
0.695031 -0.703979 -0.483739
0.695107 -0.703757 -0.483975
0.695183 -0.703534 -0.484211
0.695259 -0.703312 -0.484447
0.695335 -0.703090 -0.484683
0.695411 -0.702868 -0.484919
0.695487 -0.702646 -0.485155
0.695563 -0.702424 -0.485391
0.695639 -0.702202 -0.485627
0.695715 -0.701980 -0.485863
0.695791 -0.701758 -0.486099
0.695867 -0.701536 -0.486334
0.695943 -0.701314 -0.486570
0.696019 -0.701092 -0.486806
0.696095 -0.700870 -0.487041
0.696171 -0.700648 -0.487277
0.696247 -0.700427 -0.487512
0.696323 -0.700205 -0.487748
0.696399 -0.699983 -0.487983
0.696475 -0.699762 -0.488218
0.696551 -0.699540 -0.488454
0.696627 -0.699318 -0.488689
0.696703 -0.699097 -0.488924
0.696779 -0.698875 -0.489160
0.696855 -0.698654 -0.489395
0.696931 -0.698432 -0.489630
0.697007 -0.698211 -0.489865
0.697083 -0.697989 -0.490100
0.697159 -0.697768 -0.490335
0.697235 -0.697547 -0.490570
0.697311 -0.697326 -0.490805
0.697386 -0.697104 -0.491040
0.697462 -0.696883 -0.491275
0.697538 -0.696662 -0.491509
0.697614 -0.696441 -0.491744
0.697690 -0.696220 -0.491979
0.697766 -0.695999 -0.492214
0.697842 -0.695778 -0.492448
0.697918 -0.695557 -0.492683
0.697994 -0.695336 -0.492917
0.698070 -0.695115 -0.493152
0.698145 -0.694894 -0.493386
0.698221 -0.694673 -0.493621
0.698297 -0.694452 -0.493855
0.698373 -0.694231 -0.494089
0.698449 -0.694010 -0.494324
0.698525 -0.693790 -0.494558
0.698601 -0.693569 -0.494792
0.698677 -0.693348 -0.495026
0.698752 -0.693128 -0.495260
0.698828 -0.692907 -0.495495
0.698904 -0.692687 -0.495729
0.698980 -0.692466 -0.495963
0.699056 -0.692246 -0.496197
0.699132 -0.692025 -0.496430
0.699207 -0.691805 -0.496664
0.699283 -0.691584 -0.496898
0.699359 -0.691364 -0.497132
0.699435 -0.691144 -0.497366
0.699511 -0.690923 -0.497599
0.699586 -0.690703 -0.497833
0.699662 -0.690483 -0.498067
0.699738 -0.690263 -0.498300
0.699814 -0.690042 -0.498534
0.699890 -0.689822 -0.498767
0.699965 -0.689602 -0.499001
0.700041 -0.689382 -0.499234
0.700117 -0.689162 -0.499468
0.700193 -0.688942 -0.499701
0.700268 -0.688722 -0.499934
0.700344 -0.688502 -0.500167
0.700420 -0.688282 -0.500401
0.700496 -0.688062 -0.500634
0.700571 -0.687843 -0.500867
0.700647 -0.687623 -0.501100
0.700723 -0.687403 -0.501333
0.700798 -0.687183 -0.501566
0.700874 -0.686964 -0.501799
0.700950 -0.686744 -0.502032
0.701026 -0.686524 -0.502265
0.701101 -0.686305 -0.502498
0.701177 -0.686085 -0.502730
0.701253 -0.685866 -0.502963
0.701328 -0.685646 -0.503196
0.701404 -0.685427 -0.503429
0.701480 -0.685207 -0.503661
0.701555 -0.684988 -0.503894
0.701631 -0.684769 -0.504126
0.701707 -0.684549 -0.504359
0.701782 -0.684330 -0.504591
0.701858 -0.684111 -0.504824
0.701934 -0.683892 -0.505056
0.702009 -0.683672 -0.505288
0.702085 -0.683453 -0.505521
0.702161 -0.683234 -0.505753
0.702236 -0.683015 -0.505985
0.702312 -0.682796 -0.506217
0.702388 -0.682577 -0.506449
0.702463 -0.682358 -0.506682
0.702539 -0.682139 -0.506914
0.702614 -0.681920 -0.507146
0.702690 -0.681701 -0.507378
0.702766 -0.681482 -0.507609
0.702841 -0.681264 -0.507841
0.702917 -0.681045 -0.508073
0.702992 -0.680826 -0.508305
0.703068 -0.680607 -0.508537
0.703144 -0.680389 -0.508768
0.703219 -0.680170 -0.509000
0.703295 -0.679951 -0.509232
0.703370 -0.679733 -0.509463
0.703446 -0.679514 -0.509695
0.703521 -0.679296 -0.509926
0.703597 -0.679077 -0.510158
0.703673 -0.678859 -0.510389
0.703748 -0.678641 -0.510621
0.703824 -0.678422 -0.510852
0.703899 -0.678204 -0.511083
0.703975 -0.677985 -0.511315
0.704050 -0.677767 -0.511546
0.704126 -0.677549 -0.511777
0.704201 -0.677331 -0.512008
0.704277 -0.677113 -0.512239
0.704352 -0.676894 -0.512470
0.704428 -0.676676 -0.512701
0.704503 -0.676458 -0.512932
0.704579 -0.676240 -0.513163
0.704654 -0.676022 -0.513394
0.704730 -0.675804 -0.513625
0.704805 -0.675586 -0.513856
0.704881 -0.675368 -0.514086
0.704956 -0.675150 -0.514317
0.705032 -0.674933 -0.514548
0.705107 -0.674715 -0.514778
0.705183 -0.674497 -0.515009
0.705258 -0.674279 -0.515240
0.705333 -0.674062 -0.515470
0.705409 -0.673844 -0.515701
0.705484 -0.673626 -0.515931
0.705560 -0.673409 -0.516161
0.705635 -0.673191 -0.516392
0.705711 -0.672973 -0.516622
0.705786 -0.672756 -0.516852
0.705861 -0.672538 -0.517083
0.705937 -0.672321 -0.517313
0.706012 -0.672104 -0.517543
0.706088 -0.671886 -0.517773
0.706163 -0.671669 -0.518003
0.706238 -0.671452 -0.518233
0.706314 -0.671234 -0.518463
0.706389 -0.671017 -0.518693
0.706465 -0.670800 -0.518923
0.706540 -0.670583 -0.519153
0.706615 -0.670366 -0.519383
0.706691 -0.670148 -0.519612
0.706766 -0.669931 -0.519842
0.706841 -0.669714 -0.520072
0.706917 -0.669497 -0.520301
0.706992 -0.669280 -0.520531
0.707068 -0.669063 -0.520761
0.707143 -0.668846 -0.520990
0.707218 -0.668630 -0.521220
0.707294 -0.668413 -0.521449
0.707369 -0.668196 -0.521678
0.707444 -0.667979 -0.521908
0.707519 -0.667762 -0.522137
0.707595 -0.667546 -0.522366
0.707670 -0.667329 -0.522596
0.707745 -0.667112 -0.522825
0.707821 -0.666896 -0.523054
0.707896 -0.666679 -0.523283
0.707971 -0.666462 -0.523512
0.708047 -0.666246 -0.523741
0.708122 -0.666029 -0.523970
0.708197 -0.665813 -0.524199
0.708272 -0.665597 -0.524428
0.708348 -0.665380 -0.524657
0.708423 -0.665164 -0.524886
0.708498 -0.664948 -0.525115
0.708573 -0.664731 -0.525343
0.708649 -0.664515 -0.525572
0.708724 -0.664299 -0.525801
0.708799 -0.664083 -0.526029
0.708874 -0.663866 -0.526258
0.708950 -0.663650 -0.526487
0.709025 -0.663434 -0.526715
0.709100 -0.663218 -0.526944
0.709175 -0.663002 -0.527172
0.709250 -0.662786 -0.527400
0.709326 -0.662570 -0.527629
0.709401 -0.662354 -0.527857
0.709476 -0.662138 -0.528085
0.709551 -0.661922 -0.528313
0.709626 -0.661707 -0.528542
0.709702 -0.661491 -0.528770
0.709777 -0.661275 -0.528998
0.709852 -0.661059 -0.529226
0.709927 -0.660844 -0.529454
0.710002 -0.660628 -0.529682
0.710077 -0.660412 -0.529910
0.710153 -0.660197 -0.530138
0.710228 -0.659981 -0.530366
0.710303 -0.659766 -0.530593
0.710378 -0.659550 -0.530821
0.710453 -0.659335 -0.531049
0.710528 -0.659119 -0.531277
0.710603 -0.658904 -0.531504
0.710679 -0.658688 -0.531732
0.710754 -0.658473 -0.531959
0.710829 -0.658258 -0.532187
0.710904 -0.658043 -0.532414
0.710979 -0.657827 -0.532642
0.711054 -0.657612 -0.532869
0.711129 -0.657397 -0.533097
0.711204 -0.657182 -0.533324
0.711279 -0.656967 -0.533551
0.711354 -0.656752 -0.533779
0.711429 -0.656537 -0.534006
0.711505 -0.656322 -0.534233
0.711580 -0.656107 -0.534460
0.711655 -0.655892 -0.534687
0.711730 -0.655677 -0.534914
0.711805 -0.655462 -0.535141
0.711880 -0.655247 -0.535368
0.711955 -0.655032 -0.535595
0.712030 -0.654817 -0.535822
0.712105 -0.654603 -0.536049
0.712180 -0.654388 -0.536276
0.712255 -0.654173 -0.536502
0.712330 -0.653959 -0.536729
0.712405 -0.653744 -0.536956
0.712480 -0.653529 -0.537182
0.712555 -0.653315 -0.537409
0.712630 -0.653100 -0.537635
0.712705 -0.652886 -0.537862
0.712780 -0.652671 -0.538088
0.712855 -0.652457 -0.538315
0.712930 -0.652242 -0.538541
0.713005 -0.652028 -0.538768
0.713080 -0.651814 -0.538994
0.713155 -0.651599 -0.539220
0.713230 -0.651385 -0.539446
0.713305 -0.651171 -0.539673
0.713380 -0.650957 -0.539899
0.713455 -0.650743 -0.540125
0.713530 -0.650528 -0.540351
0.713605 -0.650314 -0.540577
0.713680 -0.650100 -0.540803
0.713755 -0.649886 -0.541029
0.713829 -0.649672 -0.541255
0.713904 -0.649458 -0.541481
0.713979 -0.649244 -0.541707
0.714054 -0.649030 -0.541932
0.714129 -0.648817 -0.542158
0.714204 -0.648603 -0.542384
0.714279 -0.648389 -0.542609
0.714354 -0.648175 -0.542835
0.714429 -0.647961 -0.543061
0.714504 -0.647748 -0.543286
0.714578 -0.647534 -0.543512
0.714653 -0.647320 -0.543737
0.714728 -0.647107 -0.543963
0.714803 -0.646893 -0.544188
0.714878 -0.646680 -0.544413
0.714953 -0.646466 -0.544639
0.715028 -0.646253 -0.544864
0.715103 -0.646039 -0.545089
0.715177 -0.645826 -0.545314
0.715252 -0.645612 -0.545539
0.715327 -0.645399 -0.545765
0.715402 -0.645186 -0.545990
0.715477 -0.644972 -0.546215
0.715552 -0.644759 -0.546440
0.715626 -0.644546 -0.546665
0.715701 -0.644333 -0.546889
0.715776 -0.644119 -0.547114
0.715851 -0.643906 -0.547339
0.715926 -0.643693 -0.547564
0.716000 -0.643480 -0.547789
0.716075 -0.643267 -0.548013
0.716150 -0.643054 -0.548238
0.716225 -0.642841 -0.548463
0.716299 -0.642628 -0.548687
0.716374 -0.642415 -0.548912
0.716449 -0.642202 -0.549136
0.716524 -0.641990 -0.549361
0.716599 -0.641777 -0.549585
0.716673 -0.641564 -0.549809
0.716748 -0.641351 -0.550034
0.716823 -0.641138 -0.550258
0.716898 -0.640926 -0.550482
0.716972 -0.640713 -0.550707
0.717047 -0.640501 -0.550931
0.717122 -0.640288 -0.551155
0.717196 -0.640075 -0.551379
0.717271 -0.639863 -0.551603
0.717346 -0.639650 -0.551827
0.717421 -0.639438 -0.552051
0.717495 -0.639225 -0.552275
0.717570 -0.639013 -0.552499
0.717645 -0.638801 -0.552723
0.717719 -0.638588 -0.552947
0.717794 -0.638376 -0.553170
0.717869 -0.638164 -0.553394
0.717943 -0.637952 -0.553618
0.718018 -0.637739 -0.553841
0.718093 -0.637527 -0.554065
0.718167 -0.637315 -0.554289
0.718242 -0.637103 -0.554512
0.718317 -0.636891 -0.554736
0.718391 -0.636679 -0.554959
0.718466 -0.636467 -0.555183
0.718541 -0.636255 -0.555406
0.718615 -0.636043 -0.555629
0.718690 -0.635831 -0.555853
0.718764 -0.635619 -0.556076
0.718839 -0.635407 -0.556299
0.718914 -0.635195 -0.556522
0.718988 -0.634984 -0.556745
0.719063 -0.634772 -0.556968
0.719138 -0.634560 -0.557191
0.719212 -0.634348 -0.557414
0.719287 -0.634137 -0.557637
0.719361 -0.633925 -0.557860
0.719436 -0.633714 -0.558083
0.719510 -0.633502 -0.558306
0.719585 -0.633290 -0.558529
0.719660 -0.633079 -0.558752
0.719734 -0.632867 -0.558975
0.719809 -0.632656 -0.559197
0.719883 -0.632445 -0.559420
0.719958 -0.632233 -0.559642
0.720032 -0.632022 -0.559865
0.720107 -0.631811 -0.560088
0.720181 -0.631599 -0.560310
0.720256 -0.631388 -0.560533
0.720330 -0.631177 -0.560755
0.720405 -0.630966 -0.560977
0.720480 -0.630754 -0.561200
0.720554 -0.630543 -0.561422
0.720629 -0.630332 -0.561644
0.720703 -0.630121 -0.561866
0.720778 -0.629910 -0.562089
0.720852 -0.629699 -0.562311
0.720927 -0.629488 -0.562533
0.721001 -0.629277 -0.562755
0.721075 -0.629066 -0.562977
0.721150 -0.628856 -0.563199
0.721224 -0.628645 -0.563421
0.721299 -0.628434 -0.563643
0.721373 -0.628223 -0.563865
0.721448 -0.628012 -0.564087
0.721522 -0.627802 -0.564308
0.721597 -0.627591 -0.564530
0.721671 -0.627380 -0.564752
0.721746 -0.627170 -0.564973
0.721820 -0.626959 -0.565195
0.721894 -0.626749 -0.565417
0.721969 -0.626538 -0.565638
0.722043 -0.626328 -0.565860
0.722118 -0.626117 -0.566081
0.722192 -0.625907 -0.566303
0.722267 -0.625696 -0.566524
0.722341 -0.625486 -0.566745
0.722415 -0.625276 -0.566967
0.722490 -0.625065 -0.567188
0.722564 -0.624855 -0.567409
0.722638 -0.624645 -0.567630
0.722713 -0.624435 -0.567852
0.722787 -0.624224 -0.568073
0.722862 -0.624014 -0.568294
0.722936 -0.623804 -0.568515
0.723010 -0.623594 -0.568736
0.723085 -0.623384 -0.568957
0.723159 -0.623174 -0.569178
0.723233 -0.622964 -0.569398
0.723308 -0.622754 -0.569619
0.723382 -0.622544 -0.569840
0.723456 -0.622334 -0.570061
0.723531 -0.622124 -0.570282
0.723605 -0.621915 -0.570502
0.723679 -0.621705 -0.570723
0.723754 -0.621495 -0.570943
0.723828 -0.621285 -0.571164
0.723902 -0.621076 -0.571385
0.723977 -0.620866 -0.571605
0.724051 -0.620656 -0.571825
0.724125 -0.620447 -0.572046
0.724199 -0.620237 -0.572266
0.724274 -0.620027 -0.572487
0.724348 -0.619818 -0.572707
0.724422 -0.619608 -0.572927
0.724497 -0.619399 -0.573147
0.724571 -0.619190 -0.573367
0.724645 -0.618980 -0.573588
0.724719 -0.618771 -0.573808
0.724794 -0.618562 -0.574028
0.724868 -0.618352 -0.574248
0.724942 -0.618143 -0.574468
0.725016 -0.617934 -0.574688
0.725090 -0.617725 -0.574908
0.725165 -0.617515 -0.575127
0.725239 -0.617306 -0.575347
0.725313 -0.617097 -0.575567
0.725387 -0.616888 -0.575787
0.725462 -0.616679 -0.576006
0.725536 -0.616470 -0.576226
0.725610 -0.616261 -0.576446
0.725684 -0.616052 -0.576665
0.725758 -0.615843 -0.576885
0.725833 -0.615634 -0.577104
0.725907 -0.615425 -0.577324
0.725981 -0.615217 -0.577543
0.726055 -0.615008 -0.577763
0.726129 -0.614799 -0.577982
0.726203 -0.614590 -0.578201
0.726277 -0.614382 -0.578420
0.726352 -0.614173 -0.578640
0.726426 -0.613964 -0.578859
0.726500 -0.613756 -0.579078
0.726574 -0.613547 -0.579297
0.726648 -0.613338 -0.579516
0.726722 -0.613130 -0.579735
0.726796 -0.612921 -0.579954
0.726871 -0.612713 -0.580173
0.726945 -0.612505 -0.580392
0.727019 -0.612296 -0.580611
0.727093 -0.612088 -0.580830
0.727167 -0.611880 -0.581049
0.727241 -0.611671 -0.581267
0.727315 -0.611463 -0.581486
0.727389 -0.611255 -0.581705
0.727463 -0.611047 -0.581923
0.727537 -0.610838 -0.582142
0.727611 -0.610630 -0.582360
0.727686 -0.610422 -0.582579
0.727760 -0.610214 -0.582797
0.727834 -0.610006 -0.583016
0.727908 -0.609798 -0.583234
0.727982 -0.609590 -0.583453
0.728056 -0.609382 -0.583671
0.728130 -0.609174 -0.583889
0.728204 -0.608966 -0.584107
0.728278 -0.608758 -0.584326
0.728352 -0.608550 -0.584544
0.728426 -0.608343 -0.584762
0.728500 -0.608135 -0.584980
0.728574 -0.607927 -0.585198
0.728648 -0.607719 -0.585416
0.728722 -0.607512 -0.585634
0.728796 -0.607304 -0.585852
0.728870 -0.607096 -0.586070
0.728944 -0.606889 -0.586288
0.729018 -0.606681 -0.586506
0.729092 -0.606474 -0.586723
0.729166 -0.606266 -0.586941
0.729240 -0.606059 -0.587159
0.729314 -0.605851 -0.587376
0.729388 -0.605644 -0.587594
0.729462 -0.605437 -0.587812
0.729536 -0.605229 -0.588029
0.729610 -0.605022 -0.588247
0.729684 -0.604815 -0.588464
0.729757 -0.604607 -0.588682
0.729831 -0.604400 -0.588899
0.729905 -0.604193 -0.589116
0.729979 -0.603986 -0.589334
0.730053 -0.603779 -0.589551
0.730127 -0.603572 -0.589768
0.730201 -0.603365 -0.589985
0.730275 -0.603158 -0.590203
0.730349 -0.602951 -0.590420
0.730423 -0.602744 -0.590637
0.730497 -0.602537 -0.590854
0.730570 -0.602330 -0.591071
0.730644 -0.602123 -0.591288
0.730718 -0.601916 -0.591505
0.730792 -0.601709 -0.591721
0.730866 -0.601502 -0.591938
0.730940 -0.601296 -0.592155
0.731014 -0.601089 -0.592372
0.731088 -0.600882 -0.592589
0.731161 -0.600676 -0.592805
0.731235 -0.600469 -0.593022
0.731309 -0.600262 -0.593239
0.731383 -0.600056 -0.593455
0.731457 -0.599849 -0.593672
0.731531 -0.599643 -0.593888
0.731604 -0.599436 -0.594105
0.731678 -0.599230 -0.594321
0.731752 -0.599023 -0.594537
0.731826 -0.598817 -0.594754
0.731900 -0.598611 -0.594970
0.731973 -0.598404 -0.595186
0.732047 -0.598198 -0.595403
0.732121 -0.597992 -0.595619
0.732195 -0.597786 -0.595835
0.732269 -0.597579 -0.596051
0.732342 -0.597373 -0.596267
0.732416 -0.597167 -0.596483
0.732490 -0.596961 -0.596699
0.732564 -0.596755 -0.596915
0.732637 -0.596549 -0.597131
0.732711 -0.596343 -0.597347
0.732785 -0.596137 -0.597563
0.732859 -0.595931 -0.597778
0.732932 -0.595725 -0.597994
0.733006 -0.595519 -0.598210
0.733080 -0.595313 -0.598426
0.733153 -0.595107 -0.598641
0.733227 -0.594901 -0.598857
0.733301 -0.594696 -0.599072
0.733375 -0.594490 -0.599288
0.733448 -0.594284 -0.599503
0.733522 -0.594078 -0.599719
0.733596 -0.593873 -0.599934
0.733669 -0.593667 -0.600150
0.733743 -0.593462 -0.600365
0.733817 -0.593256 -0.600580
0.733890 -0.593051 -0.600796
0.733964 -0.592845 -0.601011
0.734038 -0.592640 -0.601226
0.734111 -0.592434 -0.601441
0.734185 -0.592229 -0.601656
0.734259 -0.592023 -0.601871
0.734332 -0.591818 -0.602086
0.734406 -0.591613 -0.602301
0.734480 -0.591407 -0.602516
0.734553 -0.591202 -0.602731
0.734627 -0.590997 -0.602946
0.734701 -0.590792 -0.603161
0.734774 -0.590586 -0.603376
0.734848 -0.590381 -0.603590
0.734921 -0.590176 -0.603805
0.734995 -0.589971 -0.604020
0.735069 -0.589766 -0.604235
0.735142 -0.589561 -0.604449
0.735216 -0.589356 -0.604664
0.735289 -0.589151 -0.604878
0.735363 -0.588946 -0.605093
0.735437 -0.588741 -0.605307
0.735510 -0.588536 -0.605522
0.735584 -0.588332 -0.605736
0.735657 -0.588127 -0.605950
0.735731 -0.587922 -0.606165
0.735804 -0.587717 -0.606379
0.735878 -0.587513 -0.606593
0.735951 -0.587308 -0.606807
0.736025 -0.587103 -0.607021
0.736098 -0.586899 -0.607236
0.736172 -0.586694 -0.607450
0.736246 -0.586489 -0.607664
0.736319 -0.586285 -0.607878
0.736393 -0.586080 -0.608092
0.736466 -0.585876 -0.608305
0.736540 -0.585671 -0.608519
0.736613 -0.585467 -0.608733
0.736687 -0.585263 -0.608947
0.736760 -0.585058 -0.609161
0.736834 -0.584854 -0.609374
0.736907 -0.584650 -0.609588
0.736981 -0.584445 -0.609802
0.737054 -0.584241 -0.610015
0.737127 -0.584037 -0.610229
0.737201 -0.583833 -0.610443
0.737274 -0.583629 -0.610656
0.737348 -0.583425 -0.610869
0.737421 -0.583220 -0.611083
0.737495 -0.583016 -0.611296
0.737568 -0.582812 -0.611510
0.737642 -0.582608 -0.611723
0.737715 -0.582404 -0.611936
0.737788 -0.582201 -0.612149
0.737862 -0.581997 -0.612363
0.737935 -0.581793 -0.612576
0.738009 -0.581589 -0.612789
0.738082 -0.581385 -0.613002
0.738156 -0.581181 -0.613215
0.738229 -0.580978 -0.613428
0.738302 -0.580774 -0.613641
0.738376 -0.580570 -0.613854
0.738449 -0.580366 -0.614067
0.738523 -0.580163 -0.614280
0.738596 -0.579959 -0.614492
0.738669 -0.579756 -0.614705
0.738743 -0.579552 -0.614918
0.738816 -0.579349 -0.615131
0.738889 -0.579145 -0.615343
0.738963 -0.578942 -0.615556
0.739036 -0.578738 -0.615768
0.739109 -0.578535 -0.615981
0.739183 -0.578332 -0.616193
0.739256 -0.578128 -0.616406
0.739329 -0.577925 -0.616618
0.739403 -0.577722 -0.616831
0.739476 -0.577518 -0.617043
0.739549 -0.577315 -0.617255
0.739623 -0.577112 -0.617468
0.739696 -0.576909 -0.617680
0.739769 -0.576706 -0.617892
0.739843 -0.576503 -0.618104
0.739916 -0.576300 -0.618316
0.739989 -0.576096 -0.618529
0.740062 -0.575893 -0.618741
0.740136 -0.575690 -0.618953
0.740209 -0.575488 -0.619165
0.740282 -0.575285 -0.619376
0.740355 -0.575082 -0.619588
0.740429 -0.574879 -0.619800
0.740502 -0.574676 -0.620012
0.740575 -0.574473 -0.620224
0.740649 -0.574271 -0.620436
0.740722 -0.574068 -0.620647
0.740795 -0.573865 -0.620859
0.740868 -0.573662 -0.621071
0.740941 -0.573460 -0.621282
0.741015 -0.573257 -0.621494
0.741088 -0.573055 -0.621705
0.741161 -0.572852 -0.621917
0.741234 -0.572649 -0.622128
0.741307 -0.572447 -0.622340
0.741381 -0.572244 -0.622551
0.741454 -0.572042 -0.622762
0.741527 -0.571840 -0.622974
0.741600 -0.571637 -0.623185
0.741673 -0.571435 -0.623396
0.741747 -0.571233 -0.623607
0.741820 -0.571030 -0.623818
0.741893 -0.570828 -0.624029
0.741966 -0.570626 -0.624240
0.742039 -0.570424 -0.624452
0.742112 -0.570221 -0.624663
0.742186 -0.570019 -0.624873
0.742259 -0.569817 -0.625084
0.742332 -0.569615 -0.625295
0.742405 -0.569413 -0.625506
0.742478 -0.569211 -0.625717
0.742551 -0.569009 -0.625928
0.742624 -0.568807 -0.626138
0.742697 -0.568605 -0.626349
0.742771 -0.568403 -0.626560
0.742844 -0.568201 -0.626770
0.742917 -0.567999 -0.626981
0.742990 -0.567798 -0.627191
0.743063 -0.567596 -0.627402
0.743136 -0.567394 -0.627612
0.743209 -0.567192 -0.627823
0.743282 -0.566991 -0.628033
0.743355 -0.566789 -0.628244
0.743428 -0.566587 -0.628454
0.743501 -0.566386 -0.628664
0.743574 -0.566184 -0.628874
0.743648 -0.565983 -0.629085
0.743721 -0.565781 -0.629295
0.743794 -0.565580 -0.629505
0.743867 -0.565378 -0.629715
0.743940 -0.565177 -0.629925
0.744013 -0.564975 -0.630135
0.744086 -0.564774 -0.630345
0.744159 -0.564573 -0.630555
0.744232 -0.564371 -0.630765
0.744305 -0.564170 -0.630975
0.744378 -0.563969 -0.631184
0.744451 -0.563767 -0.631394
0.744524 -0.563566 -0.631604
0.744597 -0.563365 -0.631814
0.744670 -0.563164 -0.632023
0.744743 -0.562963 -0.632233
0.744816 -0.562762 -0.632443
0.744889 -0.562561 -0.632652
0.744962 -0.562360 -0.632862
0.745035 -0.562159 -0.633071
0.745108 -0.561958 -0.633281
0.745181 -0.561757 -0.633490
0.745253 -0.561556 -0.633699
0.745326 -0.561355 -0.633909
0.745399 -0.561154 -0.634118
0.745472 -0.560953 -0.634327
0.745545 -0.560753 -0.634536
0.745618 -0.560552 -0.634746
0.745691 -0.560351 -0.634955
0.745764 -0.560150 -0.635164
0.745837 -0.559950 -0.635373
0.745910 -0.559749 -0.635582
0.745983 -0.559548 -0.635791
0.746056 -0.559348 -0.636000
0.746129 -0.559147 -0.636209
0.746201 -0.558947 -0.636418
0.746274 -0.558746 -0.636627
0.746347 -0.558546 -0.636835
0.746420 -0.558345 -0.637044
0.746493 -0.558145 -0.637253
0.746566 -0.557945 -0.637462
0.746639 -0.557744 -0.637670
0.746712 -0.557544 -0.637879
0.746784 -0.557344 -0.638087
0.746857 -0.557143 -0.638296
0.746930 -0.556943 -0.638505
0.747003 -0.556743 -0.638713
0.747076 -0.556543 -0.638921
0.747149 -0.556343 -0.639130
0.747221 -0.556143 -0.639338
0.747294 -0.555942 -0.639547
0.747367 -0.555742 -0.639755
0.747440 -0.555542 -0.639963
0.747513 -0.555342 -0.640171
0.747585 -0.555142 -0.640379
0.747658 -0.554942 -0.640588
0.747731 -0.554743 -0.640796
0.747804 -0.554543 -0.641004
0.747877 -0.554343 -0.641212
0.747949 -0.554143 -0.641420
0.748022 -0.553943 -0.641628
0.748095 -0.553743 -0.641836
0.748168 -0.553544 -0.642043
0.748240 -0.553344 -0.642251
0.748313 -0.553144 -0.642459
0.748386 -0.552945 -0.642667
0.748459 -0.552745 -0.642875
0.748531 -0.552545 -0.643082
0.748604 -0.552346 -0.643290
0.748677 -0.552146 -0.643498
0.748750 -0.551947 -0.643705
0.748822 -0.551747 -0.643913
0.748895 -0.551548 -0.644120
0.748968 -0.551348 -0.644328
0.749040 -0.551149 -0.644535
0.749113 -0.550950 -0.644743
0.749186 -0.550750 -0.644950
0.749259 -0.550551 -0.645157
0.749331 -0.550352 -0.645364
0.749404 -0.550153 -0.645572
0.749477 -0.549953 -0.645779
0.749549 -0.549754 -0.645986
0.749622 -0.549555 -0.646193
0.749695 -0.549356 -0.646400
0.749767 -0.549157 -0.646607
0.749840 -0.548958 -0.646814
0.749913 -0.548759 -0.647021
0.749985 -0.548560 -0.647228
0.750058 -0.548361 -0.647435
0.750130 -0.548162 -0.647642
0.750203 -0.547963 -0.647849
0.750276 -0.547764 -0.648056
0.750348 -0.547565 -0.648263
0.750421 -0.547366 -0.648469
0.750494 -0.547167 -0.648676
0.750566 -0.546969 -0.648883
0.750639 -0.546770 -0.649089
0.750711 -0.546571 -0.649296
0.750784 -0.546372 -0.649502
0.750857 -0.546174 -0.649709
0.750929 -0.545975 -0.649915
0.751002 -0.545777 -0.650122
0.751074 -0.545578 -0.650328
0.751147 -0.545379 -0.650534
0.751219 -0.545181 -0.650741
0.751292 -0.544982 -0.650947
0.751365 -0.544784 -0.651153
0.751437 -0.544585 -0.651360
0.751510 -0.544387 -0.651566
0.751582 -0.544189 -0.651772
0.751655 -0.543990 -0.651978
0.751727 -0.543792 -0.652184
0.751800 -0.543594 -0.652390
0.751872 -0.543395 -0.652596
0.751945 -0.543197 -0.652802
0.752017 -0.542999 -0.653008
0.752090 -0.542801 -0.653214
0.752162 -0.542603 -0.653420
0.752235 -0.542405 -0.653625
0.752307 -0.542206 -0.653831
0.752380 -0.542008 -0.654037
0.752452 -0.541810 -0.654243
0.752525 -0.541612 -0.654448
0.752597 -0.541414 -0.654654
0.752670 -0.541216 -0.654859
0.752742 -0.541019 -0.655065
0.752815 -0.540821 -0.655270
0.752887 -0.540623 -0.655476
0.752960 -0.540425 -0.655681
0.753032 -0.540227 -0.655887
0.753105 -0.540029 -0.656092
0.753177 -0.539832 -0.656297
0.753249 -0.539634 -0.656503
0.753322 -0.539436 -0.656708
0.753394 -0.539239 -0.656913
0.753467 -0.539041 -0.657118
0.753539 -0.538843 -0.657324
0.753611 -0.538646 -0.657529
0.753684 -0.538448 -0.657734
0.753756 -0.538251 -0.657939
0.753829 -0.538053 -0.658144
0.753901 -0.537856 -0.658349
0.753973 -0.537658 -0.658554
0.754046 -0.537461 -0.658758
0.754118 -0.537263 -0.658963
0.754191 -0.537066 -0.659168
0.754263 -0.536869 -0.659373
0.754335 -0.536672 -0.659578
0.754408 -0.536474 -0.659782
0.754480 -0.536277 -0.659987
0.754552 -0.536080 -0.660192
0.754625 -0.535883 -0.660396
0.754697 -0.535685 -0.660601
0.754769 -0.535488 -0.660805
0.754842 -0.535291 -0.661010
0.754914 -0.535094 -0.661214
0.754986 -0.534897 -0.661419
0.755059 -0.534700 -0.661623
0.755131 -0.534503 -0.661827
0.755203 -0.534306 -0.662032
0.755276 -0.534109 -0.662236
0.755348 -0.533912 -0.662440
0.755420 -0.533716 -0.662644
0.755493 -0.533519 -0.662848
0.755565 -0.533322 -0.663053
0.755637 -0.533125 -0.663257
0.755709 -0.532928 -0.663461
0.755782 -0.532732 -0.663665
0.755854 -0.532535 -0.663869
0.755926 -0.532338 -0.664073
0.755998 -0.532142 -0.664276
0.756071 -0.531945 -0.664480
0.756143 -0.531748 -0.664684
0.756215 -0.531552 -0.664888
0.756287 -0.531355 -0.665092
0.756360 -0.531159 -0.665295
0.756432 -0.530962 -0.665499
0.756504 -0.530766 -0.665703
0.756576 -0.530570 -0.665906
0.756649 -0.530373 -0.666110
0.756721 -0.530177 -0.666313
0.756793 -0.529981 -0.666517
0.756865 -0.529784 -0.666720
0.756937 -0.529588 -0.666924
0.757010 -0.529392 -0.667127
0.757082 -0.529195 -0.667331
0.757154 -0.528999 -0.667534
0.757226 -0.528803 -0.667737
0.757298 -0.528607 -0.667940
0.757370 -0.528411 -0.668144
0.757443 -0.528215 -0.668347
0.757515 -0.528019 -0.668550
0.757587 -0.527823 -0.668753
0.757659 -0.527627 -0.668956
0.757731 -0.527431 -0.669159
0.757803 -0.527235 -0.669362
0.757875 -0.527039 -0.669565
0.757948 -0.526843 -0.669768
0.758020 -0.526647 -0.669971
0.758092 -0.526451 -0.670174
0.758164 -0.526256 -0.670376
0.758236 -0.526060 -0.670579
0.758308 -0.525864 -0.670782
0.758380 -0.525668 -0.670985
0.758452 -0.525473 -0.671187
0.758524 -0.525277 -0.671390
0.758597 -0.525082 -0.671592
0.758669 -0.524886 -0.671795
0.758741 -0.524690 -0.671998
0.758813 -0.524495 -0.672200
0.758885 -0.524299 -0.672402
0.758957 -0.524104 -0.672605
0.759029 -0.523908 -0.672807
0.759101 -0.523713 -0.673010
0.759173 -0.523518 -0.673212
0.759245 -0.523322 -0.673414
0.759317 -0.523127 -0.673616
0.759389 -0.522932 -0.673818
0.759461 -0.522736 -0.674021
0.759533 -0.522541 -0.674223
0.759605 -0.522346 -0.674425
0.759677 -0.522151 -0.674627
0.759749 -0.521955 -0.674829
0.759821 -0.521760 -0.675031
0.759893 -0.521565 -0.675233
0.759965 -0.521370 -0.675435
0.760037 -0.521175 -0.675637
0.760109 -0.520980 -0.675838
0.760181 -0.520785 -0.676040
0.760253 -0.520590 -0.676242
0.760325 -0.520395 -0.676444
0.760397 -0.520200 -0.676645
0.760469 -0.520005 -0.676847
0.760541 -0.519810 -0.677049
0.760613 -0.519616 -0.677250
0.760685 -0.519421 -0.677452
0.760757 -0.519226 -0.677653
0.760829 -0.519031 -0.677855
0.760901 -0.518836 -0.678056
0.760973 -0.518642 -0.678257
0.761045 -0.518447 -0.678459
0.761117 -0.518252 -0.678660
0.761189 -0.518058 -0.678861
0.761260 -0.517863 -0.679063
0.761332 -0.517669 -0.679264
0.761404 -0.517474 -0.679465
0.761476 -0.517280 -0.679666
0.761548 -0.517085 -0.679867
0.761620 -0.516891 -0.680068
0.761692 -0.516696 -0.680269
0.761764 -0.516502 -0.680470
0.761836 -0.516308 -0.680671
0.761907 -0.516113 -0.680872
0.761979 -0.515919 -0.681073
0.762051 -0.515725 -0.681274
0.762123 -0.515530 -0.681475
0.762195 -0.515336 -0.681676
0.762267 -0.515142 -0.681876
0.762339 -0.514948 -0.682077
0.762410 -0.514754 -0.682278
0.762482 -0.514560 -0.682478
0.762554 -0.514365 -0.682679
0.762626 -0.514171 -0.682879
0.762698 -0.513977 -0.683080
0.762770 -0.513783 -0.683281
0.762841 -0.513589 -0.683481
0.762913 -0.513395 -0.683681
0.762985 -0.513202 -0.683882
0.763057 -0.513008 -0.684082
0.763129 -0.512814 -0.684282
0.763200 -0.512620 -0.684483
0.763272 -0.512426 -0.684683
0.763344 -0.512232 -0.684883
0.763416 -0.512039 -0.685083
0.763487 -0.511845 -0.685283
0.763559 -0.511651 -0.685484
0.763631 -0.511458 -0.685684
0.763703 -0.511264 -0.685884
0.763775 -0.511070 -0.686084
0.763846 -0.510877 -0.686284
0.763918 -0.510683 -0.686484
0.763990 -0.510490 -0.686683
0.764061 -0.510296 -0.686883
0.764133 -0.510103 -0.687083
0.764205 -0.509909 -0.687283
0.764277 -0.509716 -0.687483
0.764348 -0.509522 -0.687682
0.764420 -0.509329 -0.687882
0.764492 -0.509136 -0.688082
0.764563 -0.508942 -0.688281
0.764635 -0.508749 -0.688481
0.764707 -0.508556 -0.688680
0.764779 -0.508363 -0.688880
0.764850 -0.508169 -0.689079
0.764922 -0.507976 -0.689279
0.764994 -0.507783 -0.689478
0.765065 -0.507590 -0.689677
0.765137 -0.507397 -0.689877
0.765209 -0.507204 -0.690076
0.765280 -0.507011 -0.690275
0.765352 -0.506818 -0.690474
0.765423 -0.506625 -0.690674
0.765495 -0.506432 -0.690873
0.765567 -0.506239 -0.691072
0.765638 -0.506046 -0.691271
0.765710 -0.505853 -0.691470
0.765782 -0.505660 -0.691669
0.765853 -0.505468 -0.691868
0.765925 -0.505275 -0.692067
0.765996 -0.505082 -0.692266
0.766068 -0.504889 -0.692464
0.766140 -0.504697 -0.692663
0.766211 -0.504504 -0.692862
0.766283 -0.504311 -0.693061
0.766354 -0.504119 -0.693259
0.766426 -0.503926 -0.693458
0.766498 -0.503733 -0.693657
0.766569 -0.503541 -0.693855
0.766641 -0.503348 -0.694054
0.766712 -0.503156 -0.694252
0.766784 -0.502963 -0.694451
0.766855 -0.502771 -0.694649
0.766927 -0.502579 -0.694848
0.766998 -0.502386 -0.695046
0.767070 -0.502194 -0.695245
0.767141 -0.502002 -0.695443
0.767213 -0.501809 -0.695641
0.767285 -0.501617 -0.695839
0.767356 -0.501425 -0.696038
0.767428 -0.501233 -0.696236
0.767499 -0.501040 -0.696434
0.767571 -0.500848 -0.696632
0.767642 -0.500656 -0.696830
0.767714 -0.500464 -0.697028
0.767785 -0.500272 -0.697226
0.767856 -0.500080 -0.697424
0.767928 -0.499888 -0.697622
0.767999 -0.499696 -0.697820
0.768071 -0.499504 -0.698018
0.768142 -0.499312 -0.698215
0.768214 -0.499120 -0.698413
0.768285 -0.498928 -0.698611
0.768357 -0.498736 -0.698809
0.768428 -0.498544 -0.699006
0.768500 -0.498353 -0.699204
0.768571 -0.498161 -0.699402
0.768642 -0.497969 -0.699599
0.768714 -0.497777 -0.699797
0.768785 -0.497586 -0.699994
0.768857 -0.497394 -0.700192
0.768928 -0.497202 -0.700389
0.769000 -0.497011 -0.700587
0.769071 -0.496819 -0.700784
0.769142 -0.496628 -0.700981
0.769214 -0.496436 -0.701178
0.769285 -0.496245 -0.701376
0.769357 -0.496053 -0.701573
0.769428 -0.495862 -0.701770
0.769499 -0.495670 -0.701967
0.769571 -0.495479 -0.702164
0.769642 -0.495288 -0.702361
0.769713 -0.495096 -0.702558
0.769785 -0.494905 -0.702755
0.769856 -0.494714 -0.702952
0.769927 -0.494522 -0.703149
0.769999 -0.494331 -0.703346
0.770070 -0.494140 -0.703543
0.770141 -0.493949 -0.703740
0.770213 -0.493758 -0.703937
0.770284 -0.493566 -0.704133
0.770355 -0.493375 -0.704330
0.770427 -0.493184 -0.704527
0.770498 -0.492993 -0.704724
0.770569 -0.492802 -0.704920
0.770641 -0.492611 -0.705117
0.770712 -0.492420 -0.705313
0.770783 -0.492229 -0.705510
0.770855 -0.492038 -0.705706
0.770926 -0.491848 -0.705903
0.770997 -0.491657 -0.706099
0.771068 -0.491466 -0.706295
0.771140 -0.491275 -0.706492
0.771211 -0.491084 -0.706688
0.771282 -0.490894 -0.706884
0.771353 -0.490703 -0.707081
0.771425 -0.490512 -0.707277
0.771496 -0.490322 -0.707473
0.771567 -0.490131 -0.707669
0.771638 -0.489940 -0.707865
0.771710 -0.489750 -0.708061
0.771781 -0.489559 -0.708257
0.771852 -0.489369 -0.708453
0.771923 -0.489178 -0.708649
0.771994 -0.488988 -0.708845
0.772066 -0.488797 -0.709041
0.772137 -0.488607 -0.709237
0.772208 -0.488416 -0.709433
0.772279 -0.488226 -0.709628
0.772350 -0.488036 -0.709824
0.772422 -0.487845 -0.710020
0.772493 -0.487655 -0.710215
0.772564 -0.487465 -0.710411
0.772635 -0.487275 -0.710607
0.772706 -0.487084 -0.710802
0.772777 -0.486894 -0.710998
0.772849 -0.486704 -0.711193
0.772920 -0.486514 -0.711389
0.772991 -0.486324 -0.711584
0.773062 -0.486134 -0.711780
0.773133 -0.485944 -0.711975
0.773204 -0.485754 -0.712170
0.773275 -0.485564 -0.712365
0.773347 -0.485374 -0.712561
0.773418 -0.485184 -0.712756
0.773489 -0.484994 -0.712951
0.773560 -0.484804 -0.713146
0.773631 -0.484614 -0.713341
0.773702 -0.484424 -0.713536
0.773773 -0.484234 -0.713731
0.773844 -0.484045 -0.713926
0.773915 -0.483855 -0.714121
0.773986 -0.483665 -0.714316
0.774058 -0.483476 -0.714511
0.774129 -0.483286 -0.714706
0.774200 -0.483096 -0.714901
0.774271 -0.482907 -0.715096
0.774342 -0.482717 -0.715290
0.774413 -0.482527 -0.715485
0.774484 -0.482338 -0.715680
0.774555 -0.482148 -0.715875
0.774626 -0.481959 -0.716069
0.774697 -0.481769 -0.716264
0.774768 -0.481580 -0.716458
0.774839 -0.481391 -0.716653
0.774910 -0.481201 -0.716847
0.774981 -0.481012 -0.717042
0.775052 -0.480823 -0.717236
0.775123 -0.480633 -0.717430
0.775194 -0.480444 -0.717625
0.775265 -0.480255 -0.717819
0.775336 -0.480066 -0.718013
0.775407 -0.479876 -0.718208
0.775478 -0.479687 -0.718402
0.775549 -0.479498 -0.718596
0.775620 -0.479309 -0.718790
0.775691 -0.479120 -0.718984
0.775762 -0.478931 -0.719178
0.775833 -0.478742 -0.719372
0.775904 -0.478553 -0.719566
0.775975 -0.478364 -0.719760
0.776046 -0.478175 -0.719954
0.776117 -0.477986 -0.720148
0.776188 -0.477797 -0.720342
0.776258 -0.477608 -0.720536
0.776329 -0.477419 -0.720729
0.776400 -0.477231 -0.720923
0.776471 -0.477042 -0.721117
0.776542 -0.476853 -0.721311
0.776613 -0.476664 -0.721504
0.776684 -0.476476 -0.721698
0.776755 -0.476287 -0.721891
0.776826 -0.476098 -0.722085
0.776897 -0.475910 -0.722278
0.776968 -0.475721 -0.722472
0.777038 -0.475532 -0.722665
0.777109 -0.475344 -0.722859
0.777180 -0.475155 -0.723052
0.777251 -0.474967 -0.723245
0.777322 -0.474778 -0.723439
0.777393 -0.474590 -0.723632
0.777464 -0.474402 -0.723825
0.777534 -0.474213 -0.724018
0.777605 -0.474025 -0.724212
0.777676 -0.473836 -0.724405
0.777747 -0.473648 -0.724598
0.777818 -0.473460 -0.724791
0.777889 -0.473272 -0.724984
0.777959 -0.473083 -0.725177
0.778030 -0.472895 -0.725370
0.778101 -0.472707 -0.725563
0.778172 -0.472519 -0.725756
0.778243 -0.472331 -0.725948
0.778313 -0.472143 -0.726141
0.778384 -0.471954 -0.726334
0.778455 -0.471766 -0.726527
0.778526 -0.471578 -0.726719
0.778597 -0.471390 -0.726912
0.778667 -0.471202 -0.727105
0.778738 -0.471014 -0.727297
0.778809 -0.470827 -0.727490
0.778880 -0.470639 -0.727683
0.778950 -0.470451 -0.727875
0.779021 -0.470263 -0.728067
0.779092 -0.470075 -0.728260
0.779163 -0.469887 -0.728452
0.779233 -0.469700 -0.728645
0.779304 -0.469512 -0.728837
0.779375 -0.469324 -0.729029
0.779445 -0.469137 -0.729222
0.779516 -0.468949 -0.729414
0.779587 -0.468761 -0.729606
0.779658 -0.468574 -0.729798
0.779728 -0.468386 -0.729990
0.779799 -0.468199 -0.730182
0.779870 -0.468011 -0.730374
0.779940 -0.467824 -0.730566
0.780011 -0.467636 -0.730758
0.780082 -0.467449 -0.730950
0.780152 -0.467261 -0.731142
0.780223 -0.467074 -0.731334
0.780294 -0.466886 -0.731526
0.780364 -0.466699 -0.731718
0.780435 -0.466512 -0.731910
0.780506 -0.466324 -0.732101
0.780576 -0.466137 -0.732293
0.780647 -0.465950 -0.732485
0.780718 -0.465763 -0.732676
0.780788 -0.465576 -0.732868
0.780859 -0.465388 -0.733059
0.780929 -0.465201 -0.733251
0.781000 -0.465014 -0.733443
0.781071 -0.464827 -0.733634
0.781141 -0.464640 -0.733825
0.781212 -0.464453 -0.734017
0.781282 -0.464266 -0.734208
0.781353 -0.464079 -0.734400
0.781424 -0.463892 -0.734591
0.781494 -0.463705 -0.734782
0.781565 -0.463518 -0.734973
0.781635 -0.463331 -0.735165
0.781706 -0.463145 -0.735356
0.781777 -0.462958 -0.735547
0.781847 -0.462771 -0.735738
0.781918 -0.462584 -0.735929
0.781988 -0.462398 -0.736120
0.782059 -0.462211 -0.736311
0.782129 -0.462024 -0.736502
0.782200 -0.461837 -0.736693
0.782270 -0.461651 -0.736884
0.782341 -0.461464 -0.737075
0.782411 -0.461278 -0.737265
0.782482 -0.461091 -0.737456
0.782552 -0.460905 -0.737647
0.782623 -0.460718 -0.737838
0.782693 -0.460532 -0.738028
0.782764 -0.460345 -0.738219
0.782834 -0.460159 -0.738410
0.782905 -0.459972 -0.738600
0.782975 -0.459786 -0.738791
0.783046 -0.459600 -0.738981
0.783116 -0.459413 -0.739172
0.783187 -0.459227 -0.739362
0.783257 -0.459041 -0.739553
0.783328 -0.458854 -0.739743
0.783398 -0.458668 -0.739933
0.783469 -0.458482 -0.740124
0.783539 -0.458296 -0.740314
0.783610 -0.458110 -0.740504
0.783680 -0.457924 -0.740694
0.783750 -0.457738 -0.740884
0.783821 -0.457552 -0.741075
0.783891 -0.457365 -0.741265
0.783962 -0.457179 -0.741455
0.784032 -0.456994 -0.741645
0.784102 -0.456808 -0.741835
0.784173 -0.456622 -0.742025
0.784243 -0.456436 -0.742215
0.784314 -0.456250 -0.742405
0.784384 -0.456064 -0.742594
0.784454 -0.455878 -0.742784
0.784525 -0.455692 -0.742974
0.784595 -0.455507 -0.743164
0.784666 -0.455321 -0.743353
0.784736 -0.455135 -0.743543
0.784806 -0.454949 -0.743733
0.784877 -0.454764 -0.743922
0.784947 -0.454578 -0.744112
0.785017 -0.454392 -0.744302
0.785088 -0.454207 -0.744491
0.785158 -0.454021 -0.744681
0.785228 -0.453836 -0.744870
0.785299 -0.453650 -0.745059
0.785369 -0.453465 -0.745249
0.785439 -0.453279 -0.745438
0.785510 -0.453094 -0.745628
0.785580 -0.452908 -0.745817
0.785650 -0.452723 -0.746006
0.785721 -0.452538 -0.746195
0.785791 -0.452352 -0.746384
0.785861 -0.452167 -0.746574
0.785931 -0.451982 -0.746763
0.786002 -0.451796 -0.746952
0.786072 -0.451611 -0.747141
0.786142 -0.451426 -0.747330
0.786213 -0.451241 -0.747519
0.786283 -0.451056 -0.747708
0.786353 -0.450871 -0.747897
0.786423 -0.450685 -0.748086
0.786494 -0.450500 -0.748274
0.786564 -0.450315 -0.748463
0.786634 -0.450130 -0.748652
0.786704 -0.449945 -0.748841
0.786775 -0.449760 -0.749029
0.786845 -0.449575 -0.749218
0.786915 -0.449390 -0.749407
0.786985 -0.449206 -0.749595
0.787055 -0.449021 -0.749784
0.787126 -0.448836 -0.749972
0.787196 -0.448651 -0.750161
0.787266 -0.448466 -0.750349
0.787336 -0.448281 -0.750538
0.787406 -0.448097 -0.750726
0.787477 -0.447912 -0.750915
0.787547 -0.447727 -0.751103
0.787617 -0.447543 -0.751291
0.787687 -0.447358 -0.751480
0.787757 -0.447173 -0.751668
0.787827 -0.446989 -0.751856
0.787898 -0.446804 -0.752044
0.787968 -0.446620 -0.752232
0.788038 -0.446435 -0.752420
0.788108 -0.446251 -0.752608
0.788178 -0.446066 -0.752796
0.788248 -0.445882 -0.752984
0.788318 -0.445697 -0.753172
0.788389 -0.445513 -0.753360
0.788459 -0.445329 -0.753548
0.788529 -0.445144 -0.753736
0.788599 -0.444960 -0.753924
0.788669 -0.444776 -0.754112
0.788739 -0.444591 -0.754300
0.788809 -0.444407 -0.754487
0.788879 -0.444223 -0.754675
0.788949 -0.444039 -0.754863
0.789019 -0.443855 -0.755050
0.789090 -0.443671 -0.755238
0.789160 -0.443486 -0.755425
0.789230 -0.443302 -0.755613
0.789300 -0.443118 -0.755800
0.789370 -0.442934 -0.755988
0.789440 -0.442750 -0.756175
0.789510 -0.442566 -0.756363
0.789580 -0.442382 -0.756550
0.789650 -0.442198 -0.756737
0.789720 -0.442014 -0.756925
0.789790 -0.441831 -0.757112
0.789860 -0.441647 -0.757299
0.789930 -0.441463 -0.757486
0.790000 -0.441279 -0.757674
0.790070 -0.441095 -0.757861
0.790140 -0.440912 -0.758048
0.790210 -0.440728 -0.758235
0.790280 -0.440544 -0.758422
0.790350 -0.440361 -0.758609
0.790420 -0.440177 -0.758796
0.790490 -0.439993 -0.758983
0.790560 -0.439810 -0.759170
0.790630 -0.439626 -0.759356
0.790700 -0.439443 -0.759543
0.790770 -0.439259 -0.759730
0.790840 -0.439076 -0.759917
0.790910 -0.438892 -0.760104
0.790980 -0.438709 -0.760290
0.791050 -0.438525 -0.760477
0.791120 -0.438342 -0.760663
0.791190 -0.438158 -0.760850
0.791260 -0.437975 -0.761037
0.791330 -0.437792 -0.761223
0.791399 -0.437608 -0.761410
0.791469 -0.437425 -0.761596
0.791539 -0.437242 -0.761782
0.791609 -0.437059 -0.761969
0.791679 -0.436876 -0.762155
0.791749 -0.436692 -0.762342
0.791819 -0.436509 -0.762528
0.791889 -0.436326 -0.762714
0.791959 -0.436143 -0.762900
0.792029 -0.435960 -0.763086
0.792098 -0.435777 -0.763273
0.792168 -0.435594 -0.763459
0.792238 -0.435411 -0.763645
0.792308 -0.435228 -0.763831
0.792378 -0.435045 -0.764017
0.792448 -0.434862 -0.764203
0.792518 -0.434679 -0.764389
0.792587 -0.434496 -0.764575
0.792657 -0.434314 -0.764761
0.792727 -0.434131 -0.764947
0.792797 -0.433948 -0.765132
0.792867 -0.433765 -0.765318
0.792937 -0.433582 -0.765504
0.793006 -0.433400 -0.765690
0.793076 -0.433217 -0.765875
0.793146 -0.433034 -0.766061
0.793216 -0.432852 -0.766247
0.793286 -0.432669 -0.766432
0.793355 -0.432487 -0.766618
0.793425 -0.432304 -0.766803
0.793495 -0.432121 -0.766989
0.793565 -0.431939 -0.767174
0.793635 -0.431756 -0.767360
0.793704 -0.431574 -0.767545
0.793774 -0.431392 -0.767730
0.793844 -0.431209 -0.767916
0.793914 -0.431027 -0.768101
0.793983 -0.430844 -0.768286
0.794053 -0.430662 -0.768471
0.794123 -0.430480 -0.768657
0.794193 -0.430297 -0.768842
0.794262 -0.430115 -0.769027
0.794332 -0.429933 -0.769212
0.794402 -0.429751 -0.769397
0.794471 -0.429569 -0.769582
0.794541 -0.429386 -0.769767
0.794611 -0.429204 -0.769952
0.794681 -0.429022 -0.770137
0.794750 -0.428840 -0.770322
0.794820 -0.428658 -0.770507
0.794890 -0.428476 -0.770691
0.794959 -0.428294 -0.770876
0.795029 -0.428112 -0.771061
0.795099 -0.427930 -0.771246
0.795168 -0.427748 -0.771430
0.795238 -0.427566 -0.771615
0.795308 -0.427384 -0.771800
0.795377 -0.427202 -0.771984
0.795447 -0.427021 -0.772169
0.795517 -0.426839 -0.772353
0.795586 -0.426657 -0.772538
0.795656 -0.426475 -0.772722
0.795726 -0.426293 -0.772907
0.795795 -0.426112 -0.773091
0.795865 -0.425930 -0.773275
0.795934 -0.425748 -0.773460
0.796004 -0.425567 -0.773644
0.796074 -0.425385 -0.773828
0.796143 -0.425204 -0.774013
0.796213 -0.425022 -0.774197
0.796282 -0.424841 -0.774381
0.796352 -0.424659 -0.774565
0.796422 -0.424478 -0.774749
0.796491 -0.424296 -0.774933
0.796561 -0.424115 -0.775117
0.796630 -0.423933 -0.775301
0.796700 -0.423752 -0.775485
0.796769 -0.423570 -0.775669
0.796839 -0.423389 -0.775853
0.796909 -0.423208 -0.776037
0.796978 -0.423027 -0.776221
0.797048 -0.422845 -0.776405
0.797117 -0.422664 -0.776588
0.797187 -0.422483 -0.776772
0.797256 -0.422302 -0.776956
0.797326 -0.422120 -0.777139
0.797395 -0.421939 -0.777323
0.797465 -0.421758 -0.777507
0.797534 -0.421577 -0.777690
0.797604 -0.421396 -0.777874
0.797673 -0.421215 -0.778057
0.797743 -0.421034 -0.778241
0.797812 -0.420853 -0.778424
0.797882 -0.420672 -0.778608
0.797951 -0.420491 -0.778791
0.798021 -0.420310 -0.778974
0.798090 -0.420129 -0.779158
0.798160 -0.419948 -0.779341
0.798229 -0.419768 -0.779524
0.798299 -0.419587 -0.779707
0.798368 -0.419406 -0.779890
0.798438 -0.419225 -0.780074
0.798507 -0.419045 -0.780257
0.798577 -0.418864 -0.780440
0.798646 -0.418683 -0.780623
0.798715 -0.418502 -0.780806
0.798785 -0.418322 -0.780989
0.798854 -0.418141 -0.781172
0.798924 -0.417961 -0.781355
0.798993 -0.417780 -0.781537
0.799062 -0.417599 -0.781720
0.799132 -0.417419 -0.781903
0.799201 -0.417238 -0.782086
0.799271 -0.417058 -0.782269
0.799340 -0.416878 -0.782451
0.799409 -0.416697 -0.782634
0.799479 -0.416517 -0.782817
0.799548 -0.416336 -0.782999
0.799618 -0.416156 -0.783182
0.799687 -0.415976 -0.783364
0.799756 -0.415795 -0.783547
0.799826 -0.415615 -0.783729
0.799895 -0.415435 -0.783912
0.799964 -0.415255 -0.784094
0.800034 -0.415074 -0.784277
0.800103 -0.414894 -0.784459
0.800172 -0.414714 -0.784641
0.800242 -0.414534 -0.784824
0.800311 -0.414354 -0.785006
0.800380 -0.414174 -0.785188
0.800450 -0.413994 -0.785370
0.800519 -0.413814 -0.785552
0.800588 -0.413634 -0.785735
0.800658 -0.413454 -0.785917
0.800727 -0.413274 -0.786099
0.800796 -0.413094 -0.786281
0.800865 -0.412914 -0.786463
0.800935 -0.412734 -0.786645
0.801004 -0.412554 -0.786827
0.801073 -0.412374 -0.787009
0.801143 -0.412195 -0.787190
0.801212 -0.412015 -0.787372
0.801281 -0.411835 -0.787554
0.801350 -0.411655 -0.787736
0.801420 -0.411476 -0.787918
0.801489 -0.411296 -0.788099
0.801558 -0.411116 -0.788281
0.801627 -0.410937 -0.788463
0.801697 -0.410757 -0.788644
0.801766 -0.410578 -0.788826
0.801835 -0.410398 -0.789007
0.801904 -0.410218 -0.789189
0.801973 -0.410039 -0.789370
0.802043 -0.409859 -0.789552
0.802112 -0.409680 -0.789733
0.802181 -0.409501 -0.789914
0.802250 -0.409321 -0.790096
0.802319 -0.409142 -0.790277
0.802389 -0.408962 -0.790458
0.802458 -0.408783 -0.790640
0.802527 -0.408604 -0.790821
0.802596 -0.408424 -0.791002
0.802665 -0.408245 -0.791183
0.802734 -0.408066 -0.791364
0.802804 -0.407887 -0.791545
0.802873 -0.407708 -0.791726
0.802942 -0.407528 -0.791907
0.803011 -0.407349 -0.792088
0.803080 -0.407170 -0.792269
0.803149 -0.406991 -0.792450
0.803219 -0.406812 -0.792631
0.803288 -0.406633 -0.792812
0.803357 -0.406454 -0.792993
0.803426 -0.406275 -0.793174
0.803495 -0.406096 -0.793354
0.803564 -0.405917 -0.793535
0.803633 -0.405738 -0.793716
0.803702 -0.405559 -0.793896
0.803771 -0.405380 -0.794077
0.803840 -0.405201 -0.794258
0.803910 -0.405023 -0.794438
0.803979 -0.404844 -0.794619
0.804048 -0.404665 -0.794799
0.804117 -0.404486 -0.794980
0.804186 -0.404307 -0.795160
0.804255 -0.404129 -0.795340
0.804324 -0.403950 -0.795521
0.804393 -0.403771 -0.795701
0.804462 -0.403593 -0.795881
0.804531 -0.403414 -0.796062
0.804600 -0.403236 -0.796242
0.804669 -0.403057 -0.796422
0.804738 -0.402878 -0.796602
0.804807 -0.402700 -0.796783
0.804876 -0.402521 -0.796963
0.804945 -0.402343 -0.797143
0.805014 -0.402165 -0.797323
0.805083 -0.401986 -0.797503
0.805152 -0.401808 -0.797683
0.805221 -0.401629 -0.797863
0.805290 -0.401451 -0.798043
0.805359 -0.401273 -0.798222
0.805428 -0.401094 -0.798402
0.805497 -0.400916 -0.798582
0.805566 -0.400738 -0.798762
0.805635 -0.400560 -0.798942
0.805704 -0.400382 -0.799121
0.805773 -0.400203 -0.799301
0.805842 -0.400025 -0.799481
0.805911 -0.399847 -0.799660
0.805980 -0.399669 -0.799840
0.806049 -0.399491 -0.800020
0.806118 -0.399313 -0.800199
0.806187 -0.399135 -0.800379
0.806256 -0.398957 -0.800558
0.806325 -0.398779 -0.800737
0.806393 -0.398601 -0.800917
0.806462 -0.398423 -0.801096
0.806531 -0.398245 -0.801276
0.806600 -0.398067 -0.801455
0.806669 -0.397889 -0.801634
0.806738 -0.397711 -0.801813
0.806807 -0.397534 -0.801993
0.806876 -0.397356 -0.802172
0.806945 -0.397178 -0.802351
0.807013 -0.397000 -0.802530
0.807082 -0.396823 -0.802709
0.807151 -0.396645 -0.802888
0.807220 -0.396467 -0.803067
0.807289 -0.396290 -0.803246
0.807358 -0.396112 -0.803425
0.807427 -0.395934 -0.803604
0.807495 -0.395757 -0.803783
0.807564 -0.395579 -0.803962
0.807633 -0.395402 -0.804140
0.807702 -0.395224 -0.804319
0.807771 -0.395047 -0.804498
0.807840 -0.394869 -0.804677
0.807908 -0.394692 -0.804855
0.807977 -0.394515 -0.805034
0.808046 -0.394337 -0.805213
0.808115 -0.394160 -0.805391
0.808184 -0.393982 -0.805570
0.808252 -0.393805 -0.805748
0.808321 -0.393628 -0.805927
0.808390 -0.393451 -0.806105
0.808459 -0.393273 -0.806284
0.808528 -0.393096 -0.806462
0.808596 -0.392919 -0.806641
0.808665 -0.392742 -0.806819
0.808734 -0.392565 -0.806997
0.808803 -0.392388 -0.807176
0.808871 -0.392210 -0.807354
0.808940 -0.392033 -0.807532
0.809009 -0.391856 -0.807710
0.809078 -0.391679 -0.807888
0.809146 -0.391502 -0.808066
0.809215 -0.391325 -0.808244
0.809284 -0.391148 -0.808423
0.809352 -0.390971 -0.808601
0.809421 -0.390795 -0.808779
0.809490 -0.390618 -0.808956
0.809559 -0.390441 -0.809134
0.809627 -0.390264 -0.809312
0.809696 -0.390087 -0.809490
0.809765 -0.389910 -0.809668
0.809833 -0.389734 -0.809846
0.809902 -0.389557 -0.810024
0.809971 -0.389380 -0.810201
0.810039 -0.389204 -0.810379
0.810108 -0.389027 -0.810557
0.810177 -0.388850 -0.810734
0.810245 -0.388674 -0.810912
0.810314 -0.388497 -0.811089
0.810383 -0.388320 -0.811267
0.810451 -0.388144 -0.811445
0.810520 -0.387967 -0.811622
0.810589 -0.387791 -0.811799
0.810657 -0.387614 -0.811977
0.810726 -0.387438 -0.812154
0.810794 -0.387262 -0.812332
0.810863 -0.387085 -0.812509
0.810932 -0.386909 -0.812686
0.811000 -0.386732 -0.812863
0.811069 -0.386556 -0.813041
0.811137 -0.386380 -0.813218
0.811206 -0.386204 -0.813395
0.811275 -0.386027 -0.813572
0.811343 -0.385851 -0.813749
0.811412 -0.385675 -0.813926
0.811480 -0.385499 -0.814103
0.811549 -0.385322 -0.814280
0.811618 -0.385146 -0.814457
0.811686 -0.384970 -0.814634
0.811755 -0.384794 -0.814811
0.811823 -0.384618 -0.814988
0.811892 -0.384442 -0.815165
0.811960 -0.384266 -0.815342
0.812029 -0.384090 -0.815518
0.812097 -0.383914 -0.815695
0.812166 -0.383738 -0.815872
0.812234 -0.383562 -0.816049
0.812303 -0.383386 -0.816225
0.812371 -0.383210 -0.816402
0.812440 -0.383035 -0.816578
0.812508 -0.382859 -0.816755
0.812577 -0.382683 -0.816931
0.812645 -0.382507 -0.817108
0.812714 -0.382331 -0.817284
0.812782 -0.382156 -0.817461
0.812851 -0.381980 -0.817637
0.812919 -0.381804 -0.817814
0.812988 -0.381629 -0.817990
0.813056 -0.381453 -0.818166
0.813125 -0.381277 -0.818343
0.813193 -0.381102 -0.818519
0.813262 -0.380926 -0.818695
0.813330 -0.380751 -0.818871
0.813399 -0.380575 -0.819047
0.813467 -0.380400 -0.819223
0.813535 -0.380224 -0.819399
0.813604 -0.380049 -0.819576
0.813672 -0.379873 -0.819752
0.813741 -0.379698 -0.819928
0.813809 -0.379522 -0.820103
0.813878 -0.379347 -0.820279
0.813946 -0.379172 -0.820455
0.814014 -0.378996 -0.820631
0.814083 -0.378821 -0.820807
0.814151 -0.378646 -0.820983
0.814219 -0.378471 -0.821159
0.814288 -0.378295 -0.821334
0.814356 -0.378120 -0.821510
0.814425 -0.377945 -0.821686
0.814493 -0.377770 -0.821861
0.814561 -0.377595 -0.822037
0.814630 -0.377420 -0.822212
0.814698 -0.377245 -0.822388
0.814766 -0.377070 -0.822564
0.814835 -0.376894 -0.822739
0.814903 -0.376719 -0.822914
0.814971 -0.376544 -0.823090
0.815040 -0.376370 -0.823265
0.815108 -0.376195 -0.823441
0.815176 -0.376020 -0.823616
0.815245 -0.375845 -0.823791
0.815313 -0.375670 -0.823966
0.815381 -0.375495 -0.824142
0.815450 -0.375320 -0.824317
0.815518 -0.375145 -0.824492
0.815586 -0.374971 -0.824667
0.815655 -0.374796 -0.824842
0.815723 -0.374621 -0.825017
0.815791 -0.374447 -0.825192
0.815859 -0.374272 -0.825367
0.815928 -0.374097 -0.825542
0.815996 -0.373923 -0.825717
0.816064 -0.373748 -0.825892
0.816132 -0.373573 -0.826067
0.816201 -0.373399 -0.826242
0.816269 -0.373224 -0.826417
0.816337 -0.373050 -0.826592
0.816405 -0.372875 -0.826766
0.816474 -0.372701 -0.826941
0.816542 -0.372526 -0.827116
0.816610 -0.372352 -0.827290
0.816678 -0.372178 -0.827465
0.816747 -0.372003 -0.827640
0.816815 -0.371829 -0.827814
0.816883 -0.371654 -0.827989
0.816951 -0.371480 -0.828163
0.817019 -0.371306 -0.828338
0.817088 -0.371132 -0.828512
0.817156 -0.370957 -0.828687
0.817224 -0.370783 -0.828861
0.817292 -0.370609 -0.829035
0.817360 -0.370435 -0.829210
0.817428 -0.370261 -0.829384
0.817497 -0.370087 -0.829558
0.817565 -0.369912 -0.829732
0.817633 -0.369738 -0.829907
0.817701 -0.369564 -0.830081
0.817769 -0.369390 -0.830255
0.817837 -0.369216 -0.830429
0.817906 -0.369042 -0.830603
0.817974 -0.368868 -0.830777
0.818042 -0.368694 -0.830951
0.818110 -0.368521 -0.831125
0.818178 -0.368347 -0.831299
0.818246 -0.368173 -0.831473
0.818314 -0.367999 -0.831647
0.818382 -0.367825 -0.831821
0.818450 -0.367651 -0.831994
0.818519 -0.367478 -0.832168
0.818587 -0.367304 -0.832342
0.818655 -0.367130 -0.832516
0.818723 -0.366956 -0.832689
0.818791 -0.366783 -0.832863
0.818859 -0.366609 -0.833037
0.818927 -0.366435 -0.833210
0.818995 -0.366262 -0.833384
